{
  "sentence": "The animal didn't cross the street because it was tired",
  "tokens": ["The", "animal", "didn't", "cross", "the", "street", "because", "it", "was", "tired"],
  "tokenIds": [15, 24, 25, 26, 15, 27, 28, 29, 30, 32],
  "embeddings": [
    [ 0.312,-0.178, 0.234,-0.445, 0.089,-0.312, 0.167,-0.523, 0.045,-0.267, 0.389,-0.134, 0.256,-0.478, 0.112,-0.345, 0.201,-0.156, 0.378,-0.089, 0.145,-0.412, 0.067,-0.289, 0.334,-0.201, 0.178,-0.367, 0.089,-0.234, 0.412,-0.145],
    [-0.234, 0.412,-0.156, 0.345,-0.089, 0.267,-0.378, 0.134,-0.456, 0.201,-0.112, 0.389,-0.267, 0.178,-0.401, 0.089,-0.312, 0.256,-0.067, 0.445,-0.189, 0.334,-0.412, 0.078,-0.356, 0.145,-0.223, 0.401,-0.178, 0.312,-0.067, 0.478],
    [ 0.178,-0.312, 0.401,-0.089, 0.267,-0.445, 0.134,-0.367, 0.312,-0.178, 0.445,-0.067, 0.312,-0.234, 0.089,-0.401, 0.178,-0.312, 0.056,-0.389, 0.234,-0.145, 0.378,-0.089, 0.267,-0.412, 0.123,-0.289, 0.345,-0.134, 0.456,-0.078],
    [-0.145, 0.289,-0.378, 0.178,-0.312, 0.412,-0.089, 0.345,-0.234, 0.156,-0.401, 0.089,-0.267, 0.312,-0.145, 0.423,-0.089, 0.267,-0.345, 0.178,-0.412, 0.134,-0.289, 0.234,-0.367, 0.089,-0.178, 0.345,-0.256, 0.178,-0.312, 0.267],
    [ 0.267,-0.134, 0.312,-0.389, 0.145,-0.234, 0.389,-0.178, 0.089,-0.345, 0.234,-0.156, 0.412,-0.089, 0.267,-0.312, 0.145,-0.234, 0.378,-0.156, 0.089,-0.345, 0.178,-0.267, 0.312,-0.089, 0.234,-0.178, 0.145,-0.389, 0.267,-0.134],
    [-0.389, 0.178,-0.234, 0.312,-0.145, 0.389,-0.267, 0.089,-0.312, 0.234,-0.178, 0.412,-0.089, 0.267,-0.345, 0.134,-0.267, 0.378,-0.134, 0.267,-0.312, 0.189,-0.145, 0.356,-0.089, 0.267,-0.312, 0.134,-0.234, 0.345,-0.178, 0.289],
    [ 0.134,-0.267, 0.178,-0.312, 0.389,-0.145, 0.234,-0.389, 0.178,-0.089, 0.312,-0.234, 0.145,-0.378, 0.089,-0.267, 0.345,-0.178, 0.134,-0.312, 0.267,-0.089, 0.412,-0.178, 0.089,-0.345, 0.267,-0.134, 0.378,-0.089, 0.156,-0.312],
    [-0.312, 0.145,-0.089, 0.267,-0.234, 0.178,-0.345, 0.312,-0.178, 0.089,-0.267, 0.345,-0.178, 0.089,-0.312, 0.234,-0.145, 0.312,-0.267, 0.134,-0.089, 0.267,-0.345, 0.178,-0.234, 0.312,-0.178, 0.089,-0.267, 0.145,-0.312, 0.234],
    [ 0.089,-0.345, 0.267,-0.134, 0.312,-0.267, 0.178,-0.089, 0.345,-0.234, 0.089,-0.312, 0.267,-0.178, 0.134,-0.345, 0.089,-0.267, 0.312,-0.089, 0.178,-0.345, 0.089,-0.267, 0.345,-0.178, 0.089,-0.312, 0.134,-0.267, 0.234,-0.089],
    [-0.178, 0.312,-0.234, 0.089,-0.345, 0.267,-0.089, 0.178,-0.312, 0.345,-0.134, 0.267,-0.312, 0.089,-0.178, 0.312,-0.234, 0.089,-0.178, 0.345,-0.267, 0.134,-0.089, 0.312,-0.178, 0.089,-0.345, 0.267,-0.089, 0.312,-0.134, 0.178]
  ],
  "positionalEncodings": [
    [ 0.000, 1.000, 0.000, 1.000, 0.000, 1.000, 0.000, 1.000, 0.000, 1.000, 0.000, 1.000, 0.000, 1.000, 0.000, 1.000, 0.000, 1.000, 0.000, 1.000, 0.000, 1.000, 0.000, 1.000, 0.000, 1.000, 0.000, 1.000, 0.000, 1.000, 0.000, 1.000],
    [ 0.841, 0.540, 0.603, 0.798, 0.364, 0.931, 0.199, 0.980, 0.109, 0.994, 0.059, 0.998, 0.032, 1.000, 0.017, 1.000, 0.010, 1.000, 0.005, 1.000, 0.003, 1.000, 0.002, 1.000, 0.001, 1.000, 0.001, 1.000, 0.000, 1.000, 0.000, 1.000],
    [ 0.909,-0.416, 0.930, 0.368, 0.681, 0.732, 0.389, 0.921, 0.216, 0.976, 0.118, 0.993, 0.064, 0.998, 0.035, 0.999, 0.019, 1.000, 0.010, 1.000, 0.006, 1.000, 0.003, 1.000, 0.002, 1.000, 0.001, 1.000, 0.001, 1.000, 0.000, 1.000],
    [ 0.141,-0.990, 0.974,-0.227, 0.908, 0.419, 0.565, 0.825, 0.322, 0.947, 0.177, 0.984, 0.096, 0.995, 0.052, 0.999, 0.028, 1.000, 0.015, 1.000, 0.008, 1.000, 0.005, 1.000, 0.003, 1.000, 0.001, 1.000, 0.001, 1.000, 0.000, 1.000],
    [-0.757,-0.654, 0.735,-0.678, 0.998, 0.056, 0.717, 0.697, 0.423, 0.906, 0.234, 0.972, 0.128, 0.992, 0.070, 0.998, 0.038, 0.999, 0.021, 1.000, 0.011, 1.000, 0.006, 1.000, 0.003, 1.000, 0.002, 1.000, 0.001, 1.000, 0.001, 1.000],
    [-0.959,-0.284, 0.268,-0.963, 0.920,-0.391, 0.839, 0.544, 0.520, 0.854, 0.291, 0.957, 0.160, 0.987, 0.087, 0.996, 0.047, 0.999, 0.026, 1.000, 0.014, 1.000, 0.008, 1.000, 0.004, 1.000, 0.002, 1.000, 0.001, 1.000, 0.001, 1.000],
    [-0.279, 0.960,-0.442,-0.897, 0.674,-0.739, 0.924, 0.383, 0.610, 0.793, 0.346, 0.938, 0.191, 0.982, 0.105, 0.995, 0.057, 0.998, 0.031, 1.000, 0.017, 1.000, 0.009, 1.000, 0.005, 1.000, 0.003, 1.000, 0.002, 1.000, 0.001, 1.000],
    [ 0.657, 0.754,-0.937,-0.350, 0.282,-0.959, 0.968, 0.253, 0.691, 0.723, 0.399, 0.917, 0.223, 0.975, 0.122, 0.993, 0.066, 0.998, 0.036, 1.000, 0.020, 1.000, 0.011, 1.000, 0.006, 1.000, 0.003, 1.000, 0.002, 1.000, 0.001, 1.000],
    [ 0.989,-0.146,-0.998, 0.063,-0.146,-0.989, 0.972, 0.235, 0.763, 0.647, 0.450, 0.893, 0.254, 0.967, 0.139, 0.990, 0.076, 0.997, 0.041, 0.999, 0.023, 1.000, 0.012, 1.000, 0.007, 1.000, 0.004, 1.000, 0.002, 1.000, 0.001, 1.000],
    [ 0.412,-0.911,-0.688, 0.726,-0.551,-0.835, 0.937, 0.350, 0.825, 0.566, 0.499, 0.867, 0.285, 0.959, 0.157, 0.988, 0.085, 0.996, 0.047, 0.999, 0.025, 1.000, 0.014, 1.000, 0.008, 1.000, 0.004, 1.000, 0.002, 1.000, 0.001, 1.000]
  ],
  "layers": [
    {
      "selfAttention": {
        "heads": [
          {
            "queries": [
              [ 0.234,-0.156, 0.178,-0.089, 0.312,-0.234, 0.089,-0.178],
              [-0.178, 0.267,-0.134, 0.312,-0.089, 0.178,-0.234, 0.145],
              [ 0.145,-0.289, 0.234,-0.178, 0.089,-0.312, 0.178,-0.089],
              [-0.089, 0.178,-0.267, 0.134,-0.312, 0.089,-0.178, 0.267],
              [ 0.267,-0.134, 0.089,-0.267, 0.178,-0.089, 0.312,-0.178],
              [-0.134, 0.312,-0.178, 0.089,-0.234, 0.267,-0.089, 0.178],
              [ 0.089,-0.234, 0.312,-0.145, 0.267,-0.178, 0.134,-0.312],
              [-0.267, 0.089,-0.178, 0.267,-0.134, 0.312,-0.267, 0.089],
              [ 0.178,-0.312, 0.089,-0.234, 0.312,-0.089, 0.178,-0.267],
              [-0.089, 0.178,-0.312, 0.089,-0.267, 0.178,-0.089, 0.312]
            ],
            "keys": [
              [ 0.178,-0.234, 0.312,-0.089, 0.178,-0.267, 0.134,-0.312],
              [-0.267, 0.178,-0.089, 0.234,-0.312, 0.089,-0.178, 0.267],
              [ 0.089,-0.178, 0.267,-0.134, 0.089,-0.312, 0.267,-0.089],
              [-0.312, 0.089,-0.178, 0.312,-0.089, 0.178,-0.312, 0.134],
              [ 0.134,-0.312, 0.089,-0.178, 0.267,-0.089, 0.178,-0.267],
              [-0.178, 0.267,-0.312, 0.089,-0.178, 0.267,-0.089, 0.178],
              [ 0.267,-0.089, 0.178,-0.267, 0.312,-0.178, 0.089,-0.178],
              [-0.089, 0.312,-0.267, 0.178,-0.089, 0.312,-0.267, 0.089],
              [ 0.312,-0.178, 0.089,-0.312, 0.178,-0.089, 0.312,-0.178],
              [-0.178, 0.089,-0.178, 0.089,-0.267, 0.178,-0.134, 0.267]
            ],
            "values": [
              [ 0.189,-0.267, 0.134,-0.178, 0.312,-0.089, 0.178,-0.234],
              [-0.134, 0.312,-0.267, 0.089,-0.178, 0.234,-0.089, 0.178],
              [ 0.267,-0.089, 0.178,-0.312, 0.089,-0.178, 0.312,-0.134],
              [-0.089, 0.178,-0.312, 0.267,-0.089, 0.178,-0.267, 0.089],
              [ 0.178,-0.312, 0.089,-0.178, 0.267,-0.089, 0.134,-0.267],
              [-0.267, 0.089,-0.178, 0.312,-0.267, 0.089,-0.178, 0.267],
              [ 0.134,-0.178, 0.267,-0.089, 0.178,-0.267, 0.089,-0.178],
              [-0.178, 0.267,-0.089, 0.178,-0.312, 0.178,-0.134, 0.089],
              [ 0.089,-0.134, 0.312,-0.267, 0.178,-0.089, 0.267,-0.312],
              [-0.312, 0.178,-0.134, 0.089,-0.178, 0.267,-0.089, 0.134]
            ],
            "scores": [
              [ 0.423, 0.267,-0.089,-0.234,-0.089,-0.178,-0.312,-0.267,-0.178,-0.267],
              [ 0.234, 0.456, 0.312,-0.089,-0.178,-0.234,-0.267,-0.178,-0.312,-0.267],
              [-0.089, 0.267, 0.423, 0.312,-0.089,-0.178,-0.267,-0.312,-0.178,-0.267],
              [-0.234,-0.089, 0.267, 0.445, 0.234,-0.089,-0.178,-0.267,-0.234,-0.312],
              [-0.178,-0.234,-0.089, 0.234, 0.434, 0.267,-0.089,-0.178,-0.267,-0.312],
              [-0.267,-0.312,-0.178,-0.089, 0.234, 0.456, 0.267,-0.089,-0.178,-0.267],
              [-0.312,-0.267,-0.234,-0.178,-0.089, 0.234, 0.445, 0.267,-0.089,-0.178],
              [-0.267,-0.312,-0.267,-0.234,-0.178,-0.089, 0.234, 0.456, 0.267,-0.089],
              [-0.312,-0.267,-0.312,-0.267,-0.234,-0.178,-0.089, 0.234, 0.445, 0.267],
              [-0.267,-0.312,-0.267,-0.312,-0.267,-0.234,-0.178,-0.089, 0.234, 0.445]
            ],
            "weights": [
              [ 0.216, 0.185, 0.130, 0.112, 0.130, 0.119, 0.104, 0.004, 0.000, 0.000],
              [ 0.155, 0.193, 0.167, 0.112, 0.103, 0.097, 0.094, 0.030, 0.025, 0.024],
              [ 0.097, 0.139, 0.162, 0.145, 0.097, 0.089, 0.081, 0.078, 0.067, 0.045],
              [ 0.078, 0.090, 0.129, 0.154, 0.125, 0.090, 0.083, 0.076, 0.092, 0.083],
              [ 0.080, 0.076, 0.088, 0.121, 0.148, 0.125, 0.088, 0.080, 0.111, 0.083],
              [ 0.069, 0.066, 0.075, 0.082, 0.114, 0.142, 0.118, 0.082, 0.134, 0.118],
              [ 0.063, 0.066, 0.068, 0.072, 0.079, 0.109, 0.134, 0.113, 0.158, 0.138],
              [ 0.060, 0.057, 0.060, 0.062, 0.065, 0.072, 0.098, 0.123, 0.192, 0.211],
              [ 0.050, 0.053, 0.050, 0.053, 0.055, 0.058, 0.063, 0.087, 0.282, 0.249],
              [ 0.048, 0.046, 0.048, 0.046, 0.048, 0.050, 0.053, 0.058, 0.267, 0.336]
            ],
            "output": [
              [ 0.056,-0.034, 0.023,-0.045, 0.089,-0.012, 0.045,-0.067],
              [-0.012, 0.067,-0.034, 0.023,-0.045, 0.056,-0.023, 0.034],
              [ 0.034,-0.023, 0.045,-0.067, 0.023,-0.034, 0.056,-0.023],
              [-0.023, 0.034,-0.056, 0.045,-0.012, 0.023,-0.045, 0.034],
              [ 0.023,-0.045, 0.012,-0.023, 0.056,-0.012, 0.023,-0.045],
              [-0.045, 0.023,-0.023, 0.056,-0.034, 0.012,-0.023, 0.045],
              [ 0.012,-0.034, 0.045,-0.012, 0.023,-0.045, 0.012,-0.023],
              [-0.023, 0.045,-0.012, 0.023,-0.056, 0.034,-0.012, 0.012],
              [ 0.023,-0.012, 0.056,-0.045, 0.034,-0.012, 0.045,-0.056],
              [-0.056, 0.034,-0.023, 0.012,-0.023, 0.045,-0.012, 0.023]
            ]
          },
          {
            "queries": [
              [ 0.178,-0.089, 0.234,-0.312, 0.145,-0.178, 0.267,-0.089],
              [-0.267, 0.178,-0.089, 0.234,-0.312, 0.089,-0.145, 0.312],
              [ 0.089,-0.234, 0.178,-0.089, 0.267,-0.312, 0.089,-0.178],
              [-0.178, 0.312,-0.234, 0.089,-0.178, 0.267,-0.312, 0.089],
              [ 0.312,-0.178, 0.089,-0.267, 0.089,-0.178, 0.234,-0.089],
              [-0.089, 0.267,-0.178, 0.312,-0.089, 0.178,-0.267, 0.134],
              [ 0.234,-0.089, 0.312,-0.178, 0.089,-0.267, 0.178,-0.312],
              [-0.312, 0.134,-0.089, 0.178,-0.267, 0.312,-0.089, 0.178],
              [ 0.134,-0.267, 0.089,-0.312, 0.178,-0.089, 0.312,-0.134],
              [-0.089, 0.312,-0.178, 0.089,-0.312, 0.178,-0.089, 0.267]
            ],
            "keys": [
              [ 0.267,-0.178, 0.089,-0.234, 0.178,-0.312, 0.089,-0.178],
              [-0.089, 0.312,-0.178, 0.089,-0.267, 0.178,-0.312, 0.089],
              [ 0.178,-0.089, 0.267,-0.312, 0.089,-0.178, 0.267,-0.089],
              [-0.234, 0.089,-0.312, 0.267,-0.178, 0.089,-0.178, 0.312],
              [ 0.089,-0.267, 0.178,-0.089, 0.312,-0.089, 0.089,-0.267],
              [-0.312, 0.178,-0.089, 0.178,-0.089, 0.312,-0.178, 0.089],
              [ 0.178,-0.312, 0.089,-0.178, 0.267,-0.089, 0.178,-0.312],
              [-0.089, 0.089,-0.267, 0.312,-0.178, 0.089,-0.089, 0.178],
              [ 0.312,-0.089, 0.178,-0.089, 0.089,-0.267, 0.312,-0.089],
              [-0.178, 0.178,-0.089, 0.089,-0.312, 0.178,-0.267, 0.267]
            ],
            "values": [
              [ 0.212,-0.178, 0.134,-0.267, 0.089,-0.178, 0.234,-0.089],
              [-0.178, 0.234,-0.089, 0.178,-0.267, 0.089,-0.178, 0.312],
              [ 0.089,-0.267, 0.234,-0.089, 0.178,-0.312, 0.089,-0.178],
              [-0.267, 0.089,-0.178, 0.312,-0.089, 0.178,-0.267, 0.089],
              [ 0.178,-0.089, 0.312,-0.178, 0.089,-0.267, 0.178,-0.089],
              [-0.089, 0.178,-0.267, 0.089,-0.178, 0.312,-0.089, 0.178],
              [ 0.134,-0.312, 0.089,-0.178, 0.267,-0.089, 0.134,-0.267],
              [-0.312, 0.089,-0.178, 0.267,-0.312, 0.089,-0.178, 0.089],
              [ 0.267,-0.178, 0.089,-0.312, 0.178,-0.089, 0.267,-0.312],
              [-0.089, 0.267,-0.312, 0.089,-0.178, 0.267,-0.089, 0.134]
            ],
            "scores": [
              [-0.089, 0.534,-0.178,-0.312,-0.089,-0.234, 0.089,-0.312,-0.178,-0.267],
              [ 0.178,-0.089, 0.467, 0.312,-0.089,-0.178,-0.234,-0.178,-0.267,-0.312],
              [-0.178, 0.423,-0.089, 0.089,-0.267,-0.312,-0.178,-0.267, 0.089,-0.178],
              [-0.267,-0.178, 0.089,-0.089, 0.312, 0.445,-0.089,-0.267,-0.178,-0.312],
              [-0.312,-0.267,-0.089, 0.089,-0.089, 0.534,-0.178,-0.089,-0.267,-0.312],
              [-0.267,-0.178,-0.312, 0.423,-0.089,-0.089, 0.089,-0.312,-0.178, 0.089],
              [-0.312,-0.089,-0.178, 0.089, 0.089,-0.089, 0.089, 0.312, 0.267,-0.089],
              [-0.267,-0.089,-0.312,-0.178,-0.089,-0.267,-0.089, 0.089, 0.456,-0.089],
              [-0.178, 0.089,-0.267,-0.312,-0.089,-0.178, 0.089,-0.089,-0.089, 0.423],
              [-0.312,-0.178,-0.267, 0.089,-0.312,-0.089, 0.089,-0.089, 0.312, 0.456]
            ],
            "weights": [
              [ 0.085, 0.316, 0.078, 0.068, 0.085, 0.073, 0.101, 0.068, 0.057, 0.069],
              [ 0.130, 0.100, 0.174, 0.149, 0.100, 0.091, 0.086, 0.049, 0.069, 0.052],
              [ 0.081, 0.148, 0.089, 0.106, 0.074, 0.071, 0.081, 0.074, 0.106, 0.170],
              [ 0.068, 0.075, 0.098, 0.082, 0.122, 0.139, 0.082, 0.068, 0.126, 0.140],
              [ 0.063, 0.066, 0.079, 0.094, 0.079, 0.147, 0.072, 0.079, 0.224, 0.097],
              [ 0.072, 0.079, 0.069, 0.144, 0.086, 0.086, 0.103, 0.069, 0.079, 0.213],
              [ 0.064, 0.080, 0.073, 0.096, 0.096, 0.080, 0.096, 0.120, 0.200, 0.095],
              [ 0.063, 0.075, 0.060, 0.069, 0.075, 0.063, 0.075, 0.089, 0.338, 0.093],
              [ 0.074, 0.097, 0.068, 0.065, 0.081, 0.074, 0.097, 0.081, 0.081, 0.282],
              [ 0.058, 0.067, 0.061, 0.087, 0.058, 0.073, 0.087, 0.073, 0.186, 0.250]
            ],
            "output": [
              [-0.023, 0.089,-0.034, 0.045,-0.067, 0.023,-0.045, 0.089],
              [ 0.012,-0.045, 0.056,-0.012, 0.034,-0.067, 0.012,-0.023],
              [-0.034, 0.056,-0.023, 0.034,-0.045, 0.045,-0.034, 0.056],
              [ 0.023,-0.023, 0.034,-0.034, 0.012, 0.023,-0.034, 0.023],
              [-0.012, 0.034,-0.045, 0.023,-0.023, 0.056,-0.023, 0.012],
              [ 0.034,-0.012, 0.023,-0.045, 0.034,-0.012, 0.023,-0.034],
              [-0.045, 0.023,-0.012, 0.034,-0.034, 0.012,-0.045, 0.023],
              [ 0.045,-0.034, 0.012,-0.056, 0.023,-0.023, 0.045,-0.067],
              [-0.023, 0.045,-0.034, 0.012,-0.012, 0.034,-0.023, 0.045],
              [ 0.012,-0.023, 0.023,-0.023, 0.045,-0.034, 0.012,-0.012]
            ]
          },
          {
            "queries": [
              [ 0.312,-0.089, 0.178,-0.267, 0.134,-0.312, 0.089,-0.178],
              [-0.178, 0.312,-0.089, 0.178,-0.267, 0.089,-0.312, 0.178],
              [ 0.089,-0.178, 0.312,-0.089, 0.178,-0.267, 0.134,-0.089],
              [-0.267, 0.089,-0.178, 0.312,-0.089, 0.178,-0.267, 0.089],
              [ 0.178,-0.267, 0.089,-0.178, 0.312,-0.089, 0.178,-0.267],
              [-0.089, 0.178,-0.267, 0.089,-0.178, 0.312,-0.089, 0.178],
              [ 0.134,-0.312, 0.178,-0.089, 0.267,-0.178, 0.089,-0.312],
              [-0.312, 0.089,-0.178, 0.267,-0.089, 0.178,-0.312, 0.089],
              [ 0.089,-0.178, 0.267,-0.312, 0.089,-0.089, 0.267,-0.178],
              [-0.178, 0.267,-0.089, 0.089,-0.312, 0.267,-0.089, 0.178]
            ],
            "keys": [
              [ 0.178,-0.312, 0.089,-0.178, 0.267,-0.089, 0.178,-0.312],
              [-0.089, 0.178,-0.267, 0.089,-0.178, 0.312,-0.089, 0.178],
              [ 0.267,-0.089, 0.178,-0.312, 0.089,-0.178, 0.312,-0.089],
              [-0.178, 0.267,-0.089, 0.178,-0.312, 0.089,-0.178, 0.267],
              [ 0.089,-0.178, 0.312,-0.089, 0.178,-0.267, 0.089,-0.178],
              [-0.312, 0.089,-0.178, 0.267,-0.089, 0.178,-0.312, 0.089],
              [ 0.178,-0.267, 0.089,-0.178, 0.312,-0.089, 0.178,-0.267],
              [-0.089, 0.312,-0.178, 0.089,-0.178, 0.267,-0.089, 0.178],
              [ 0.312,-0.089, 0.267,-0.178, 0.089,-0.178, 0.267,-0.089],
              [-0.178, 0.089,-0.312, 0.267,-0.089, 0.089,-0.178, 0.312]
            ],
            "values": [
              [ 0.234,-0.089, 0.178,-0.312, 0.089,-0.178, 0.267,-0.089],
              [-0.089, 0.267,-0.178, 0.089,-0.312, 0.089,-0.178, 0.267],
              [ 0.178,-0.178, 0.089,-0.267, 0.178,-0.089, 0.089,-0.178],
              [-0.267, 0.089,-0.312, 0.178,-0.089, 0.267,-0.312, 0.089],
              [ 0.089,-0.267, 0.178,-0.089, 0.267,-0.178, 0.178,-0.267],
              [-0.178, 0.089,-0.089, 0.267,-0.178, 0.089,-0.089, 0.178],
              [ 0.267,-0.312, 0.089,-0.178, 0.089,-0.267, 0.267,-0.089],
              [-0.089, 0.178,-0.267, 0.089,-0.178, 0.178,-0.089, 0.089],
              [ 0.089,-0.089, 0.267,-0.089, 0.178,-0.089, 0.178,-0.267],
              [-0.312, 0.178,-0.089, 0.267,-0.267, 0.178,-0.178, 0.267]
            ],
            "scores": [
              [ 0.178, 0.089,-0.089,-0.178, 0.312, 0.089,-0.267,-0.312,-0.089, 0.178],
              [-0.089, 0.178,-0.178, 0.089,-0.089,-0.267, 0.089, 0.089,-0.178, 0.456],
              [-0.178, 0.089, 0.267,-0.089,-0.178,-0.089, 0.089,-0.312, 0.089,-0.178],
              [ 0.089,-0.267, 0.089, 0.089,-0.089, 0.312,-0.178, 0.089,-0.267,-0.178],
              [ 0.312,-0.089,-0.178,-0.089, 0.089,-0.267, 0.089, 0.089,-0.178, 0.089],
              [-0.089, 0.089,-0.089, 0.089,-0.267, 0.178, 0.089,-0.178, 0.089,-0.089],
              [-0.267, 0.312,-0.089,-0.178, 0.089,-0.089, 0.089,-0.178, 0.089, 0.356],
              [-0.312, 0.534,-0.267,-0.089,-0.178,-0.267, 0.089, 0.089,-0.178, 0.089],
              [-0.089, 0.089, 0.089,-0.267, 0.089,-0.178, 0.089,-0.089, 0.089, 0.423],
              [-0.178, 0.423, 0.089,-0.178,-0.089,-0.089, 0.089,-0.267, 0.089, 0.267]
            ],
            "weights": [
              [ 0.115, 0.105, 0.088, 0.081, 0.132, 0.105, 0.074, 0.070, 0.088, 0.142],
              [ 0.079, 0.103, 0.072, 0.094, 0.079, 0.066, 0.094, 0.094, 0.072, 0.247],
              [ 0.078, 0.102, 0.122, 0.085, 0.078, 0.085, 0.102, 0.068, 0.102, 0.178],
              [ 0.098, 0.069, 0.098, 0.098, 0.082, 0.123, 0.075, 0.098, 0.069, 0.190],
              [ 0.139, 0.093, 0.085, 0.093, 0.111, 0.078, 0.111, 0.111, 0.085, 0.094],
              [ 0.088, 0.105, 0.088, 0.105, 0.074, 0.115, 0.105, 0.081, 0.105, 0.134],
              [ 0.063, 0.112, 0.075, 0.069, 0.090, 0.075, 0.090, 0.069, 0.090, 0.267],
              [ 0.054, 0.254, 0.057, 0.068, 0.062, 0.057, 0.081, 0.081, 0.062, 0.224],
              [ 0.079, 0.094, 0.094, 0.066, 0.094, 0.072, 0.094, 0.079, 0.094, 0.234],
              [ 0.065, 0.189, 0.085, 0.065, 0.071, 0.071, 0.085, 0.060, 0.085, 0.224]
            ],
            "output": [
              [ 0.034,-0.023, 0.045,-0.056, 0.034,-0.023, 0.045,-0.023],
              [-0.089, 0.078,-0.034, 0.067,-0.078, 0.056,-0.045, 0.089],
              [ 0.023,-0.034, 0.023,-0.045, 0.034,-0.023, 0.023,-0.034],
              [-0.045, 0.023,-0.067, 0.056,-0.023, 0.045,-0.056, 0.034],
              [ 0.056,-0.045, 0.034,-0.056, 0.034,-0.034, 0.045,-0.045],
              [-0.023, 0.034,-0.012, 0.034,-0.023, 0.023,-0.012, 0.023],
              [-0.034, 0.056,-0.023, 0.034,-0.056, 0.034,-0.023, 0.067],
              [-0.045, 0.089,-0.056, 0.023,-0.067, 0.045,-0.034, 0.078],
              [-0.056, 0.045,-0.012, 0.034,-0.045, 0.034,-0.023, 0.056],
              [-0.067, 0.067,-0.023, 0.034,-0.056, 0.045,-0.034, 0.067]
            ]
          },
          {
            "queries": [
              [ 0.089,-0.178, 0.134,-0.089, 0.267,-0.134, 0.089,-0.178],
              [-0.134, 0.089,-0.178, 0.267,-0.089, 0.134,-0.178, 0.089],
              [ 0.178,-0.089, 0.089,-0.178, 0.134,-0.089, 0.178,-0.134],
              [-0.089, 0.178,-0.134, 0.089,-0.178, 0.089,-0.134, 0.178],
              [ 0.134,-0.134, 0.178,-0.089, 0.089,-0.178, 0.134,-0.089],
              [-0.178, 0.089,-0.089, 0.178,-0.134, 0.089,-0.089, 0.134],
              [ 0.089,-0.178, 0.134,-0.134, 0.178,-0.089, 0.089,-0.178],
              [-0.134, 0.134,-0.089, 0.089,-0.178, 0.178,-0.134, 0.089],
              [ 0.178,-0.089, 0.089,-0.178, 0.089,-0.134, 0.178,-0.089],
              [-0.089, 0.178,-0.178, 0.089,-0.089, 0.134,-0.089, 0.178]
            ],
            "keys": [
              [ 0.134,-0.089, 0.178,-0.134, 0.089,-0.178, 0.134,-0.089],
              [-0.089, 0.134,-0.089, 0.178,-0.134, 0.089,-0.089, 0.134],
              [ 0.178,-0.134, 0.089,-0.089, 0.178,-0.089, 0.089,-0.178],
              [-0.134, 0.178,-0.178, 0.089,-0.089, 0.178,-0.178, 0.089],
              [ 0.089,-0.089, 0.134,-0.178, 0.134,-0.134, 0.178,-0.089],
              [-0.178, 0.089,-0.134, 0.134,-0.178, 0.089,-0.089, 0.178],
              [ 0.134,-0.178, 0.089,-0.089, 0.089,-0.178, 0.134,-0.134],
              [-0.089, 0.089,-0.178, 0.134,-0.089, 0.134,-0.178, 0.089],
              [ 0.089,-0.134, 0.134,-0.178, 0.178,-0.089, 0.089,-0.178],
              [-0.178, 0.089,-0.089, 0.089,-0.134, 0.178,-0.134, 0.134]
            ],
            "values": [
              [ 0.134,-0.089, 0.178,-0.134, 0.089,-0.178, 0.134,-0.089],
              [-0.089, 0.134,-0.089, 0.178,-0.134, 0.089,-0.089, 0.134],
              [ 0.178,-0.134, 0.089,-0.089, 0.178,-0.089, 0.089,-0.178],
              [-0.134, 0.178,-0.178, 0.089,-0.089, 0.178,-0.178, 0.089],
              [ 0.089,-0.089, 0.134,-0.178, 0.134,-0.134, 0.178,-0.089],
              [-0.178, 0.089,-0.134, 0.134,-0.178, 0.089,-0.089, 0.178],
              [ 0.134,-0.178, 0.089,-0.089, 0.089,-0.178, 0.134,-0.134],
              [-0.089, 0.089,-0.178, 0.134,-0.089, 0.134,-0.178, 0.089],
              [ 0.089,-0.134, 0.134,-0.178, 0.178,-0.089, 0.089,-0.178],
              [-0.178, 0.089,-0.089, 0.089,-0.134, 0.178,-0.134, 0.134]
            ],
            "scores": [
              [ 0.045, 0.034, 0.023, 0.012, 0.023, 0.012, 0.023, 0.012, 0.023, 0.012],
              [ 0.034, 0.045, 0.034, 0.023, 0.012, 0.023, 0.012, 0.023, 0.012, 0.023],
              [ 0.023, 0.034, 0.045, 0.034, 0.023, 0.012, 0.023, 0.012, 0.023, 0.012],
              [ 0.012, 0.023, 0.034, 0.045, 0.034, 0.023, 0.012, 0.023, 0.012, 0.023],
              [ 0.023, 0.012, 0.023, 0.034, 0.045, 0.034, 0.023, 0.012, 0.023, 0.012],
              [ 0.012, 0.023, 0.012, 0.023, 0.034, 0.045, 0.034, 0.023, 0.012, 0.023],
              [ 0.023, 0.012, 0.023, 0.012, 0.023, 0.034, 0.045, 0.034, 0.023, 0.012],
              [ 0.012, 0.023, 0.012, 0.023, 0.012, 0.023, 0.034, 0.045, 0.034, 0.023],
              [ 0.023, 0.012, 0.023, 0.012, 0.023, 0.012, 0.023, 0.034, 0.045, 0.034],
              [ 0.012, 0.023, 0.012, 0.023, 0.012, 0.023, 0.012, 0.023, 0.034, 0.045]
            ],
            "weights": [
              [ 0.107, 0.106, 0.105, 0.104, 0.095, 0.094, 0.095, 0.094, 0.105, 0.095],
              [ 0.106, 0.107, 0.106, 0.105, 0.094, 0.095, 0.094, 0.095, 0.094, 0.104],
              [ 0.105, 0.106, 0.107, 0.106, 0.095, 0.094, 0.095, 0.094, 0.095, 0.103],
              [ 0.094, 0.095, 0.106, 0.107, 0.106, 0.095, 0.094, 0.095, 0.094, 0.114],
              [ 0.105, 0.094, 0.095, 0.106, 0.107, 0.106, 0.095, 0.094, 0.095, 0.103],
              [ 0.094, 0.095, 0.094, 0.095, 0.106, 0.107, 0.106, 0.095, 0.094, 0.114],
              [ 0.095, 0.094, 0.095, 0.094, 0.095, 0.106, 0.107, 0.106, 0.095, 0.113],
              [ 0.094, 0.095, 0.094, 0.095, 0.094, 0.095, 0.106, 0.107, 0.106, 0.114],
              [ 0.095, 0.094, 0.095, 0.094, 0.095, 0.094, 0.095, 0.106, 0.107, 0.125],
              [ 0.094, 0.095, 0.094, 0.095, 0.094, 0.095, 0.094, 0.095, 0.106, 0.138]
            ],
            "output": [
              [ 0.005,-0.003, 0.012,-0.005, 0.008,-0.005, 0.008,-0.003],
              [-0.003, 0.008,-0.005, 0.012,-0.003, 0.005,-0.005, 0.008],
              [ 0.008,-0.003, 0.005,-0.008, 0.012,-0.003, 0.005,-0.008],
              [-0.005, 0.008,-0.008, 0.005,-0.003, 0.008,-0.008, 0.005],
              [ 0.005,-0.005, 0.008,-0.005, 0.008,-0.005, 0.008,-0.005],
              [-0.008, 0.005,-0.005, 0.008,-0.008, 0.005,-0.005, 0.008],
              [ 0.005,-0.008, 0.005,-0.003, 0.005,-0.008, 0.008,-0.005],
              [-0.005, 0.005,-0.008, 0.008,-0.005, 0.005,-0.008, 0.005],
              [ 0.005,-0.005, 0.008,-0.008, 0.008,-0.003, 0.005,-0.008],
              [-0.008, 0.005,-0.005, 0.005,-0.005, 0.008,-0.005, 0.008]
            ]
          }
        ],
        "combinedOutput": [
          [ 0.056,-0.034, 0.023,-0.045, 0.089,-0.012, 0.045,-0.067,-0.023, 0.089,-0.034, 0.045,-0.067, 0.023,-0.045, 0.089, 0.034,-0.023, 0.045,-0.056, 0.034,-0.023, 0.045,-0.023, 0.005,-0.003, 0.012,-0.005, 0.008,-0.005, 0.008,-0.003],
          [-0.012, 0.067,-0.034, 0.023,-0.045, 0.056,-0.023, 0.034, 0.012,-0.045, 0.056,-0.012, 0.034,-0.067, 0.012,-0.023,-0.089, 0.078,-0.034, 0.067,-0.078, 0.056,-0.045, 0.089,-0.003, 0.008,-0.005, 0.012,-0.003, 0.005,-0.005, 0.008],
          [ 0.034,-0.023, 0.045,-0.067, 0.023,-0.034, 0.056,-0.023,-0.034, 0.056,-0.023, 0.034,-0.045, 0.045,-0.034, 0.056, 0.023,-0.034, 0.023,-0.045, 0.034,-0.023, 0.023,-0.034, 0.008,-0.003, 0.005,-0.008, 0.012,-0.003, 0.005,-0.008],
          [-0.023, 0.034,-0.056, 0.045,-0.012, 0.023,-0.045, 0.034, 0.023,-0.023, 0.034,-0.034, 0.012, 0.023,-0.034, 0.023,-0.045, 0.023,-0.067, 0.056,-0.023, 0.045,-0.056, 0.034,-0.005, 0.008,-0.008, 0.005,-0.003, 0.008,-0.008, 0.005],
          [ 0.023,-0.045, 0.012,-0.023, 0.056,-0.012, 0.023,-0.045,-0.012, 0.034,-0.045, 0.023,-0.023, 0.056,-0.023, 0.012, 0.056,-0.045, 0.034,-0.056, 0.034,-0.034, 0.045,-0.045, 0.005,-0.005, 0.008,-0.005, 0.008,-0.005, 0.008,-0.005],
          [-0.045, 0.023,-0.023, 0.056,-0.034, 0.012,-0.023, 0.045, 0.034,-0.012, 0.023,-0.045, 0.034,-0.012, 0.023,-0.034,-0.023, 0.034,-0.012, 0.034,-0.023, 0.023,-0.012, 0.023,-0.008, 0.005,-0.005, 0.008,-0.008, 0.005,-0.005, 0.008],
          [ 0.012,-0.034, 0.045,-0.012, 0.023,-0.045, 0.012,-0.023,-0.045, 0.023,-0.012, 0.034,-0.034, 0.012,-0.045, 0.023,-0.034, 0.056,-0.023, 0.034,-0.056, 0.034,-0.023, 0.067, 0.005,-0.008, 0.005,-0.003, 0.005,-0.008, 0.008,-0.005],
          [-0.023, 0.045,-0.012, 0.023,-0.056, 0.034,-0.012, 0.012, 0.045,-0.034, 0.012,-0.056, 0.023,-0.023, 0.045,-0.067,-0.045, 0.089,-0.056, 0.023,-0.067, 0.045,-0.034, 0.078,-0.005, 0.005,-0.008, 0.008,-0.005, 0.005,-0.008, 0.005],
          [ 0.023,-0.012, 0.056,-0.045, 0.034,-0.012, 0.045,-0.056,-0.023, 0.045,-0.034, 0.012,-0.012, 0.034,-0.023, 0.045,-0.056, 0.045,-0.012, 0.034,-0.045, 0.034,-0.023, 0.056, 0.005,-0.005, 0.008,-0.008, 0.008,-0.003, 0.005,-0.008],
          [-0.056, 0.034,-0.023, 0.012,-0.023, 0.045,-0.012, 0.023, 0.012,-0.023, 0.023,-0.023, 0.045,-0.034, 0.012,-0.012,-0.067, 0.067,-0.023, 0.034,-0.056, 0.045,-0.034, 0.067,-0.008, 0.005,-0.005, 0.005,-0.005, 0.008,-0.005, 0.008]
        ]
      },
      "ffnOutput": [
        [ 0.078,-0.012, 0.045,-0.023, 0.112,-0.019, 0.067,-0.045,-0.001, 0.112,-0.012, 0.067,-0.045, 0.045,-0.023, 0.112, 0.056,-0.001, 0.067,-0.034, 0.056,-0.001, 0.067,-0.001, 0.027, 0.019, 0.034, 0.017, 0.030, 0.017, 0.030, 0.019],
        [ 0.010, 0.089,-0.012, 0.045,-0.023, 0.078,-0.001, 0.056, 0.034,-0.023, 0.078, 0.010, 0.056,-0.045, 0.034,-0.001,-0.067, 0.101,-0.012, 0.089,-0.056, 0.078,-0.023, 0.112, 0.019, 0.030, 0.017, 0.034, 0.019, 0.027, 0.017, 0.030],
        [ 0.056,-0.001, 0.067,-0.045, 0.045,-0.012, 0.078,-0.001,-0.012, 0.078,-0.001, 0.056,-0.023, 0.067,-0.012, 0.078, 0.045,-0.012, 0.045,-0.023, 0.056,-0.001, 0.045,-0.012, 0.030, 0.019, 0.027, 0.014, 0.034, 0.019, 0.027, 0.014],
        [-0.001, 0.056,-0.034, 0.067, 0.010, 0.045,-0.023, 0.056, 0.045,-0.001, 0.056,-0.012, 0.034, 0.045,-0.012, 0.045,-0.023, 0.045,-0.045, 0.078,-0.001, 0.067,-0.034, 0.056, 0.017, 0.030, 0.014, 0.027, 0.019, 0.030, 0.014, 0.027],
        [ 0.045,-0.023, 0.034,-0.001, 0.078, 0.010, 0.045,-0.023, 0.010, 0.056,-0.023, 0.045,-0.001, 0.078,-0.001, 0.034, 0.078,-0.023, 0.056,-0.034, 0.056,-0.012, 0.067,-0.023, 0.027, 0.017, 0.030, 0.017, 0.030, 0.017, 0.030, 0.017],
        [-0.023, 0.045,-0.001, 0.078,-0.012, 0.034,-0.001, 0.067, 0.056, 0.010, 0.045,-0.023, 0.056, 0.010, 0.045,-0.012,-0.001, 0.056, 0.010, 0.056,-0.001, 0.045, 0.010, 0.045, 0.014, 0.027, 0.017, 0.030, 0.014, 0.027, 0.017, 0.030],
        [ 0.034,-0.012, 0.067, 0.010, 0.045,-0.023, 0.034,-0.001,-0.023, 0.045, 0.010, 0.056,-0.012, 0.034,-0.023, 0.045,-0.012, 0.078,-0.001, 0.056,-0.034, 0.056,-0.001, 0.089, 0.027, 0.014, 0.027, 0.019, 0.027, 0.014, 0.030, 0.017],
        [-0.001, 0.067, 0.010, 0.045,-0.034, 0.056, 0.010, 0.034, 0.067,-0.012, 0.034,-0.034, 0.045,-0.001, 0.067,-0.045,-0.023, 0.112,-0.034, 0.045,-0.045, 0.067,-0.012, 0.101, 0.017, 0.027, 0.014, 0.030, 0.017, 0.027, 0.014, 0.027],
        [ 0.045, 0.010, 0.078,-0.023, 0.056, 0.010, 0.067,-0.034,-0.001, 0.067,-0.012, 0.034, 0.010, 0.056,-0.001, 0.067,-0.034, 0.067, 0.010, 0.056,-0.023, 0.056,-0.001, 0.078, 0.027, 0.017, 0.030, 0.014, 0.030, 0.019, 0.027, 0.014],
        [-0.034, 0.056,-0.001, 0.034,-0.001, 0.067, 0.010, 0.045, 0.034,-0.001, 0.045,-0.001, 0.067,-0.012, 0.034, 0.010,-0.045, 0.089,-0.001, 0.056,-0.034, 0.067,-0.012, 0.089, 0.014, 0.027, 0.017, 0.027, 0.017, 0.030, 0.017, 0.030]
      ],
      "layerOutput": [
        [ 0.070,-0.011, 0.041,-0.021, 0.101,-0.017, 0.060,-0.041,-0.001, 0.101,-0.011, 0.060,-0.041, 0.041,-0.021, 0.101, 0.050,-0.001, 0.060,-0.031, 0.050,-0.001, 0.060,-0.001, 0.024, 0.017, 0.031, 0.015, 0.027, 0.015, 0.027, 0.017],
        [ 0.009, 0.080,-0.011, 0.041,-0.021, 0.070,-0.001, 0.050, 0.031,-0.021, 0.070, 0.009, 0.050,-0.041, 0.031,-0.001,-0.060, 0.091,-0.011, 0.080,-0.050, 0.070,-0.021, 0.101, 0.017, 0.027, 0.015, 0.031, 0.017, 0.024, 0.015, 0.027],
        [ 0.050,-0.001, 0.060,-0.041, 0.041,-0.011, 0.070,-0.001,-0.011, 0.070,-0.001, 0.050,-0.021, 0.060,-0.011, 0.070, 0.041,-0.011, 0.041,-0.021, 0.050,-0.001, 0.041,-0.011, 0.027, 0.017, 0.024, 0.013, 0.031, 0.017, 0.024, 0.013],
        [-0.001, 0.050,-0.031, 0.060, 0.009, 0.041,-0.021, 0.050, 0.041,-0.001, 0.050,-0.011, 0.031, 0.041,-0.011, 0.041,-0.021, 0.041,-0.041, 0.070,-0.001, 0.060,-0.031, 0.050, 0.015, 0.027, 0.013, 0.024, 0.017, 0.027, 0.013, 0.024],
        [ 0.041,-0.021, 0.031,-0.001, 0.070, 0.009, 0.041,-0.021, 0.009, 0.050,-0.021, 0.041,-0.001, 0.070,-0.001, 0.031, 0.070,-0.021, 0.050,-0.031, 0.050,-0.011, 0.060,-0.021, 0.024, 0.015, 0.027, 0.015, 0.027, 0.015, 0.027, 0.015],
        [-0.021, 0.041,-0.001, 0.070,-0.011, 0.031,-0.001, 0.060, 0.050, 0.009, 0.041,-0.021, 0.050, 0.009, 0.041,-0.011,-0.001, 0.050, 0.009, 0.050,-0.001, 0.041, 0.009, 0.041, 0.013, 0.024, 0.015, 0.027, 0.013, 0.024, 0.015, 0.027],
        [ 0.031,-0.011, 0.060, 0.009, 0.041,-0.021, 0.031,-0.001,-0.021, 0.041, 0.009, 0.050,-0.011, 0.031,-0.021, 0.041,-0.011, 0.070,-0.001, 0.050,-0.031, 0.050,-0.001, 0.080, 0.024, 0.013, 0.024, 0.017, 0.024, 0.013, 0.027, 0.015],
        [-0.001, 0.060, 0.009, 0.041,-0.031, 0.050, 0.009, 0.031, 0.060,-0.011, 0.031,-0.031, 0.041,-0.001, 0.060,-0.041,-0.021, 0.101,-0.031, 0.041,-0.041, 0.060,-0.011, 0.091, 0.015, 0.024, 0.013, 0.027, 0.015, 0.024, 0.013, 0.024],
        [ 0.041, 0.009, 0.070,-0.021, 0.050, 0.009, 0.060,-0.031,-0.001, 0.060,-0.011, 0.031, 0.009, 0.050,-0.001, 0.060,-0.031, 0.060, 0.009, 0.050,-0.021, 0.050,-0.001, 0.070, 0.024, 0.015, 0.027, 0.013, 0.027, 0.017, 0.024, 0.013],
        [-0.031, 0.050,-0.001, 0.031,-0.001, 0.060, 0.009, 0.041, 0.031,-0.001, 0.041,-0.001, 0.060,-0.011, 0.031, 0.009,-0.041, 0.080,-0.001, 0.050,-0.031, 0.060,-0.011, 0.080, 0.013, 0.024, 0.015, 0.024, 0.015, 0.027, 0.015, 0.027]
      ]
    }
  ]
}
