{
  "sentence": "I went to the bank to deposit money",
  "tokens": ["I", "went", "to", "the", "bank", "to", "deposit", "money"],
  "tokenIds": [33, 34, 35, 15, 36, 35, 37, 38],
  "embeddings": [
    [ 0.345,-0.212, 0.178,-0.389, 0.134,-0.267, 0.312,-0.089, 0.234,-0.178, 0.412,-0.134, 0.089,-0.345, 0.267,-0.178, 0.156,-0.312, 0.089,-0.234, 0.345,-0.089, 0.178,-0.312, 0.267,-0.156, 0.089,-0.412, 0.178,-0.267, 0.312,-0.134],
    [-0.178, 0.312,-0.234, 0.145,-0.312, 0.267,-0.089, 0.389,-0.178, 0.089,-0.345, 0.234,-0.178, 0.312,-0.089, 0.267,-0.345, 0.178,-0.267, 0.134,-0.089, 0.345,-0.267, 0.089,-0.312, 0.178,-0.134, 0.345,-0.267, 0.089,-0.178, 0.312],
    [ 0.089,-0.345, 0.267,-0.134, 0.178,-0.312, 0.234,-0.178, 0.312,-0.089, 0.178,-0.345, 0.267,-0.134, 0.089,-0.312, 0.234,-0.178, 0.345,-0.089, 0.134,-0.267, 0.312,-0.089, 0.178,-0.345, 0.134,-0.267, 0.312,-0.178, 0.089,-0.234],
    [-0.267, 0.134,-0.312, 0.267,-0.089, 0.178,-0.345, 0.134,-0.267, 0.312,-0.089, 0.178,-0.312, 0.089,-0.234, 0.345,-0.134, 0.267,-0.178, 0.312,-0.267, 0.089,-0.178, 0.345,-0.089, 0.267,-0.312, 0.134,-0.178, 0.345,-0.267, 0.089],
    [ 0.178,-0.089, 0.345,-0.267, 0.312,-0.134, 0.089,-0.312, 0.178,-0.267, 0.312,-0.089, 0.134,-0.267, 0.345,-0.178, 0.089,-0.312, 0.267,-0.134, 0.312,-0.178, 0.089,-0.267, 0.345,-0.089, 0.178,-0.312, 0.134,-0.267, 0.178,-0.345],
    [-0.312, 0.178,-0.089, 0.312,-0.267, 0.089,-0.178, 0.267,-0.134, 0.345,-0.178, 0.089,-0.267, 0.312,-0.089, 0.134,-0.267, 0.345,-0.089, 0.178,-0.345, 0.134,-0.312, 0.178,-0.089, 0.312,-0.267, 0.089,-0.345, 0.178,-0.089, 0.267],
    [ 0.267,-0.312, 0.134,-0.178, 0.089,-0.345, 0.312,-0.089, 0.267,-0.134, 0.089,-0.312, 0.345,-0.089, 0.178,-0.267, 0.312,-0.089, 0.134,-0.345, 0.178,-0.267, 0.089,-0.134, 0.267,-0.312, 0.345,-0.089, 0.178,-0.312, 0.267,-0.089],
    [-0.134, 0.267,-0.178, 0.089,-0.345, 0.312,-0.267, 0.178,-0.089, 0.267,-0.312, 0.134,-0.089, 0.345,-0.267, 0.089,-0.178, 0.312,-0.345, 0.267,-0.089, 0.178,-0.345, 0.267,-0.134, 0.089,-0.178, 0.312,-0.089, 0.267,-0.345, 0.178]
  ],
  "positionalEncodings": [
    [ 0.000, 1.000, 0.000, 1.000, 0.000, 1.000, 0.000, 1.000, 0.000, 1.000, 0.000, 1.000, 0.000, 1.000, 0.000, 1.000, 0.000, 1.000, 0.000, 1.000, 0.000, 1.000, 0.000, 1.000, 0.000, 1.000, 0.000, 1.000, 0.000, 1.000, 0.000, 1.000],
    [ 0.841, 0.540, 0.603, 0.798, 0.364, 0.931, 0.199, 0.980, 0.109, 0.994, 0.059, 0.998, 0.032, 1.000, 0.017, 1.000, 0.010, 1.000, 0.005, 1.000, 0.003, 1.000, 0.002, 1.000, 0.001, 1.000, 0.001, 1.000, 0.000, 1.000, 0.000, 1.000],
    [ 0.909,-0.416, 0.930, 0.368, 0.681, 0.732, 0.389, 0.921, 0.216, 0.976, 0.118, 0.993, 0.064, 0.998, 0.035, 0.999, 0.019, 1.000, 0.010, 1.000, 0.006, 1.000, 0.003, 1.000, 0.002, 1.000, 0.001, 1.000, 0.001, 1.000, 0.000, 1.000],
    [ 0.141,-0.990, 0.974,-0.227, 0.908, 0.419, 0.565, 0.825, 0.322, 0.947, 0.177, 0.984, 0.096, 0.995, 0.052, 0.999, 0.028, 1.000, 0.015, 1.000, 0.008, 1.000, 0.005, 1.000, 0.003, 1.000, 0.001, 1.000, 0.001, 1.000, 0.000, 1.000],
    [-0.757,-0.654, 0.735,-0.678, 0.998, 0.056, 0.717, 0.697, 0.423, 0.906, 0.234, 0.972, 0.128, 0.992, 0.070, 0.998, 0.038, 0.999, 0.021, 1.000, 0.011, 1.000, 0.006, 1.000, 0.003, 1.000, 0.002, 1.000, 0.001, 1.000, 0.001, 1.000],
    [-0.959,-0.284, 0.268,-0.963, 0.920,-0.391, 0.839, 0.544, 0.520, 0.854, 0.291, 0.957, 0.160, 0.987, 0.087, 0.996, 0.047, 0.999, 0.026, 1.000, 0.014, 1.000, 0.008, 1.000, 0.004, 1.000, 0.002, 1.000, 0.001, 1.000, 0.001, 1.000],
    [-0.279, 0.960,-0.442,-0.897, 0.674,-0.739, 0.924, 0.383, 0.610, 0.793, 0.346, 0.938, 0.191, 0.982, 0.105, 0.995, 0.057, 0.998, 0.031, 1.000, 0.017, 1.000, 0.009, 1.000, 0.005, 1.000, 0.003, 1.000, 0.002, 1.000, 0.001, 1.000],
    [ 0.657, 0.754,-0.937,-0.350, 0.282,-0.959, 0.968, 0.253, 0.691, 0.723, 0.399, 0.917, 0.223, 0.975, 0.122, 0.993, 0.066, 0.998, 0.036, 1.000, 0.020, 1.000, 0.011, 1.000, 0.006, 1.000, 0.003, 1.000, 0.002, 1.000, 0.001, 1.000]
  ],
  "layers": [
    {
      "selfAttention": {
        "heads": [
          {
            "queries": [
              [ 0.267,-0.134, 0.178,-0.089, 0.234,-0.178, 0.089,-0.267],
              [-0.178, 0.234,-0.089, 0.312,-0.134, 0.178,-0.267, 0.089],
              [ 0.089,-0.267, 0.178,-0.134, 0.267,-0.089, 0.178,-0.312],
              [-0.134, 0.178,-0.267, 0.089,-0.178, 0.267,-0.089, 0.134],
              [ 0.178,-0.089, 0.267,-0.178, 0.134,-0.267, 0.089,-0.178],
              [-0.089, 0.134,-0.178, 0.267,-0.089, 0.178,-0.267, 0.089],
              [ 0.134,-0.267, 0.089,-0.178, 0.267,-0.134, 0.178,-0.089],
              [-0.267, 0.089,-0.134, 0.178,-0.267, 0.089,-0.178, 0.267]
            ],
            "keys": [
              [ 0.178,-0.267, 0.089,-0.134, 0.267,-0.089, 0.178,-0.267],
              [-0.089, 0.178,-0.267, 0.089,-0.178, 0.267,-0.089, 0.134],
              [ 0.267,-0.089, 0.178,-0.267, 0.089,-0.178, 0.267,-0.089],
              [-0.178, 0.267,-0.089, 0.178,-0.267, 0.089,-0.178, 0.267],
              [ 0.089,-0.178, 0.267,-0.089, 0.178,-0.267, 0.089,-0.178],
              [-0.267, 0.089,-0.178, 0.267,-0.089, 0.178,-0.267, 0.089],
              [ 0.178,-0.267, 0.089,-0.178, 0.267,-0.089, 0.178,-0.267],
              [-0.089, 0.178,-0.089, 0.089,-0.178, 0.267,-0.089, 0.178]
            ],
            "values": [
              [ 0.234,-0.178, 0.089,-0.267, 0.134,-0.178, 0.267,-0.089],
              [-0.089, 0.267,-0.178, 0.134,-0.267, 0.089,-0.134, 0.267],
              [ 0.178,-0.089, 0.267,-0.134, 0.089,-0.267, 0.178,-0.134],
              [-0.267, 0.134,-0.089, 0.267,-0.178, 0.134,-0.089, 0.178],
              [ 0.089,-0.267, 0.178,-0.089, 0.267,-0.089, 0.134,-0.267],
              [-0.178, 0.089,-0.267, 0.178,-0.089, 0.267,-0.178, 0.089],
              [ 0.134,-0.178, 0.089,-0.267, 0.178,-0.134, 0.267,-0.178],
              [-0.134, 0.178,-0.134, 0.089,-0.178, 0.178,-0.089, 0.134]
            ],
            "scores": [
              [ 0.456, 0.312,-0.089,-0.267,-0.178,-0.312,-0.267,-0.312],
              [ 0.267, 0.489, 0.312,-0.089,-0.178,-0.267,-0.312,-0.267],
              [-0.089, 0.267, 0.478, 0.312,-0.089,-0.178,-0.267,-0.312],
              [-0.267,-0.089, 0.267, 0.467, 0.312,-0.089,-0.178,-0.267],
              [-0.178,-0.267,-0.089, 0.267, 0.456, 0.312,-0.089,-0.178],
              [-0.312,-0.178,-0.267,-0.089, 0.267, 0.489, 0.312,-0.089],
              [-0.267,-0.312,-0.178,-0.267,-0.089, 0.267, 0.478, 0.312],
              [-0.312,-0.267,-0.312,-0.178,-0.267,-0.089, 0.267, 0.467]
            ],
            "weights": [
              [ 0.283, 0.245, 0.164, 0.137, 0.041, 0.031, 0.050, 0.049],
              [ 0.189, 0.236, 0.197, 0.132, 0.050, 0.047, 0.073, 0.076],
              [ 0.100, 0.143, 0.176, 0.150, 0.100, 0.092, 0.126, 0.113],
              [ 0.077, 0.092, 0.131, 0.160, 0.137, 0.092, 0.168, 0.143],
              [ 0.083, 0.076, 0.091, 0.130, 0.157, 0.136, 0.175, 0.152],
              [ 0.064, 0.073, 0.067, 0.080, 0.114, 0.143, 0.256, 0.203],
              [ 0.059, 0.056, 0.064, 0.059, 0.070, 0.100, 0.302, 0.290],
              [ 0.049, 0.052, 0.049, 0.056, 0.052, 0.061, 0.327, 0.354]
            ],
            "output": [
              [ 0.078,-0.045, 0.023,-0.067, 0.045,-0.034, 0.078,-0.023],
              [ 0.045,-0.012, 0.034,-0.045, 0.012,-0.034, 0.045,-0.012],
              [ 0.023,-0.034, 0.045,-0.023, 0.034,-0.056, 0.045,-0.023],
              [-0.023, 0.012,-0.012, 0.034,-0.023, 0.012,-0.012, 0.023],
              [-0.012,-0.023, 0.034,-0.012, 0.045,-0.012, 0.023,-0.045],
              [-0.034, 0.012,-0.045, 0.034,-0.012, 0.045,-0.034, 0.012],
              [ 0.012,-0.034, 0.023,-0.045, 0.045,-0.023, 0.056,-0.045],
              [-0.023, 0.034,-0.034, 0.012,-0.023, 0.034,-0.023, 0.023]
            ]
          },
          {
            "queries": [
              [ 0.134,-0.178, 0.267,-0.089, 0.178,-0.312, 0.089,-0.134],
              [-0.267, 0.089,-0.178, 0.267,-0.089, 0.134,-0.267, 0.178],
              [ 0.178,-0.089, 0.134,-0.267, 0.089,-0.178, 0.267,-0.089],
              [-0.089, 0.267,-0.089, 0.134,-0.267, 0.089,-0.178, 0.267],
              [ 0.089,-0.267, 0.178,-0.089, 0.267,-0.089, 0.134,-0.267],
              [-0.178, 0.134,-0.267, 0.089,-0.178, 0.267,-0.089, 0.134],
              [ 0.267,-0.089, 0.089,-0.178, 0.134,-0.267, 0.178,-0.089],
              [-0.134, 0.178,-0.134, 0.267,-0.089, 0.178,-0.134, 0.089]
            ],
            "keys": [
              [ 0.089,-0.134, 0.267,-0.178, 0.089,-0.267, 0.134,-0.089],
              [-0.178, 0.267,-0.089, 0.134,-0.178, 0.089,-0.267, 0.178],
              [ 0.267,-0.089, 0.134,-0.267, 0.178,-0.089, 0.089,-0.178],
              [-0.089, 0.134,-0.178, 0.267,-0.089, 0.178,-0.134, 0.089],
              [ 0.134,-0.267, 0.089,-0.089, 0.267,-0.178, 0.178,-0.267],
              [-0.267, 0.089,-0.267, 0.134,-0.178, 0.089,-0.089, 0.134],
              [ 0.178,-0.178, 0.178,-0.089, 0.134,-0.267, 0.267,-0.089],
              [-0.089, 0.134,-0.089, 0.178,-0.267, 0.178,-0.178, 0.267]
            ],
            "values": [
              [ 0.178,-0.267, 0.089,-0.134, 0.267,-0.089, 0.134,-0.178],
              [-0.134, 0.178,-0.267, 0.089,-0.178, 0.267,-0.089, 0.134],
              [ 0.089,-0.134, 0.178,-0.267, 0.089,-0.178, 0.267,-0.089],
              [-0.267, 0.089,-0.089, 0.178,-0.267, 0.089,-0.134, 0.267],
              [ 0.134,-0.178, 0.267,-0.089, 0.134,-0.267, 0.178,-0.134],
              [-0.089, 0.267,-0.178, 0.134,-0.089, 0.178,-0.267, 0.089],
              [ 0.267,-0.089, 0.134,-0.178, 0.267,-0.134, 0.089,-0.267],
              [-0.178, 0.134,-0.089, 0.267,-0.134, 0.089,-0.178, 0.178]
            ],
            "scores": [
              [ 0.089, 0.534,-0.089,-0.267,-0.178,-0.312,-0.089,-0.267],
              [ 0.178, 0.089, 0.489, 0.267,-0.089,-0.178,-0.267,-0.178],
              [-0.089, 0.267, 0.089, 0.512,-0.089,-0.267,-0.178, 0.089],
              [-0.267,-0.089,-0.089, 0.089, 0.534,-0.089,-0.267, 0.089],
              [-0.178,-0.267, 0.089,-0.089, 0.089, 0.089,-0.267, 0.534],
              [-0.312,-0.178,-0.267, 0.089, 0.089, 0.089, 0.489,-0.089],
              [-0.089,-0.267,-0.178,-0.267,-0.089, 0.089, 0.089, 0.534],
              [-0.267, 0.089,-0.312,-0.089, 0.312,-0.267, 0.489,-0.089]
            ],
            "weights": [
              [ 0.103, 0.322, 0.086, 0.072, 0.079, 0.069, 0.086, 0.183],
              [ 0.133, 0.122, 0.182, 0.146, 0.102, 0.093, 0.086, 0.136],
              [ 0.086, 0.123, 0.103, 0.157, 0.086, 0.072, 0.079, 0.294],
              [ 0.072, 0.086, 0.086, 0.103, 0.161, 0.086, 0.072, 0.334],
              [ 0.079, 0.072, 0.103, 0.086, 0.103, 0.103, 0.072, 0.382],
              [ 0.063, 0.072, 0.066, 0.094, 0.094, 0.094, 0.140, 0.377],
              [ 0.079, 0.066, 0.072, 0.066, 0.079, 0.094, 0.094, 0.450],
              [ 0.063, 0.090, 0.060, 0.075, 0.112, 0.063, 0.267, 0.270]
            ],
            "output": [
              [-0.023, 0.067,-0.078, 0.034,-0.045, 0.078,-0.023, 0.012],
              [ 0.012,-0.023, 0.034,-0.056, 0.023,-0.034, 0.045,-0.012],
              [-0.034, 0.034,-0.023, 0.045,-0.034, 0.023,-0.012, 0.034],
              [ 0.023,-0.045, 0.056,-0.012, 0.012,-0.045, 0.034,-0.023],
              [-0.045, 0.034,-0.023, 0.067,-0.034, 0.012,-0.045, 0.045],
              [ 0.045,-0.023, 0.012,-0.034, 0.056,-0.034, 0.012,-0.034],
              [ 0.056,-0.012, 0.023,-0.045, 0.067,-0.023, 0.023,-0.067],
              [ 0.034,-0.034, 0.034,-0.023, 0.034,-0.034, 0.045,-0.045]
            ]
          },
          {
            "queries": [
              [ 0.178,-0.089, 0.267,-0.134, 0.089,-0.267, 0.178,-0.089],
              [-0.089, 0.178,-0.134, 0.267,-0.089, 0.134,-0.178, 0.089],
              [ 0.134,-0.267, 0.089,-0.178, 0.267,-0.089, 0.134,-0.267],
              [-0.267, 0.089,-0.267, 0.089,-0.178, 0.267,-0.089, 0.178],
              [ 0.089,-0.178, 0.178,-0.089, 0.134,-0.178, 0.267,-0.089],
              [-0.178, 0.134,-0.089, 0.178,-0.267, 0.089,-0.134, 0.267],
              [ 0.267,-0.134, 0.089,-0.267, 0.178,-0.089, 0.089,-0.178],
              [-0.134, 0.267,-0.178, 0.089,-0.134, 0.178,-0.267, 0.089]
            ],
            "keys": [
              [ 0.134,-0.178, 0.089,-0.267, 0.178,-0.089, 0.134,-0.267],
              [-0.267, 0.089,-0.178, 0.134,-0.267, 0.178,-0.089, 0.134],
              [ 0.089,-0.267, 0.267,-0.089, 0.089,-0.267, 0.178,-0.089],
              [-0.178, 0.134,-0.089, 0.267,-0.178, 0.089,-0.267, 0.178],
              [ 0.267,-0.089, 0.178,-0.178, 0.267,-0.178, 0.089,-0.178],
              [-0.089, 0.267,-0.267, 0.089,-0.089, 0.267,-0.178, 0.089],
              [ 0.178,-0.178, 0.089,-0.267, 0.178,-0.089, 0.267,-0.089],
              [-0.089, 0.089,-0.089, 0.178,-0.267, 0.089,-0.089, 0.267]
            ],
            "values": [
              [ 0.267,-0.089, 0.134,-0.178, 0.089,-0.267, 0.178,-0.089],
              [-0.089, 0.267,-0.178, 0.089,-0.267, 0.089,-0.089, 0.267],
              [ 0.134,-0.178, 0.267,-0.089, 0.178,-0.134, 0.089,-0.178],
              [-0.178, 0.089,-0.089, 0.267,-0.089, 0.178,-0.267, 0.089],
              [ 0.089,-0.267, 0.178,-0.134, 0.267,-0.089, 0.134,-0.267],
              [-0.267, 0.089,-0.134, 0.178,-0.178, 0.267,-0.178, 0.089],
              [ 0.178,-0.134, 0.089,-0.267, 0.178,-0.178, 0.267,-0.134],
              [-0.134, 0.178,-0.267, 0.134,-0.089, 0.089,-0.089, 0.178]
            ],
            "scores": [
              [ 0.178, 0.089,-0.089,-0.178, 0.089,-0.178, 0.089, 0.312],
              [-0.089, 0.178,-0.089, 0.089,-0.267, 0.089, 0.089, 0.267],
              [-0.178, 0.089, 0.178,-0.089, 0.089,-0.267, 0.089, 0.089],
              [ 0.089,-0.178, 0.089, 0.089,-0.089, 0.089,-0.089, 0.089],
              [ 0.089,-0.267, 0.089,-0.089, 0.089,-0.089, 0.445, 0.423],
              [-0.089, 0.089,-0.178, 0.089,-0.089, 0.089, 0.178, 0.267],
              [-0.089,-0.089,-0.089,-0.267, 0.423,-0.178, 0.089, 0.356],
              [ 0.089,-0.089,-0.267, 0.089, 0.356,-0.089, 0.312, 0.089]
            ],
            "weights": [
              [ 0.145, 0.132, 0.111, 0.101, 0.132, 0.101, 0.132, 0.146],
              [ 0.098, 0.128, 0.098, 0.117, 0.082, 0.117, 0.117, 0.243],
              [ 0.092, 0.120, 0.131, 0.100, 0.120, 0.084, 0.120, 0.233],
              [ 0.120, 0.092, 0.120, 0.120, 0.100, 0.120, 0.100, 0.228],
              [ 0.085, 0.060, 0.085, 0.071, 0.085, 0.071, 0.279, 0.264],
              [ 0.089, 0.106, 0.081, 0.106, 0.089, 0.106, 0.116, 0.307],
              [ 0.074, 0.074, 0.074, 0.062, 0.123, 0.068, 0.088, 0.437],
              [ 0.094, 0.079, 0.066, 0.094, 0.123, 0.079, 0.117, 0.348]
            ],
            "output": [
              [ 0.023,-0.012, 0.034,-0.023, 0.023,-0.034, 0.034,-0.012],
              [-0.034, 0.045,-0.056, 0.023,-0.034, 0.023,-0.023, 0.056],
              [-0.023, 0.034,-0.034, 0.012,-0.012, 0.012,-0.012, 0.034],
              [-0.012, 0.012,-0.012, 0.034,-0.023, 0.023,-0.034, 0.023],
              [ 0.034,-0.056, 0.034,-0.056, 0.067,-0.034, 0.056,-0.056],
              [-0.023, 0.034,-0.045, 0.034,-0.023, 0.034,-0.034, 0.045],
              [ 0.012,-0.045, 0.045,-0.034, 0.045,-0.023, 0.034,-0.045],
              [ 0.012,-0.034, 0.023,-0.012, 0.034,-0.012, 0.023,-0.023]
            ]
          },
          {
            "queries": [
              [ 0.089,-0.134, 0.178,-0.089, 0.134,-0.178, 0.089,-0.134],
              [-0.134, 0.089,-0.089, 0.178,-0.134, 0.089,-0.134, 0.089],
              [ 0.134,-0.089, 0.089,-0.134, 0.178,-0.089, 0.134,-0.178],
              [-0.089, 0.134,-0.178, 0.089,-0.089, 0.134,-0.089, 0.134],
              [ 0.089,-0.134, 0.134,-0.089, 0.089,-0.134, 0.178,-0.089],
              [-0.134, 0.089,-0.089, 0.134,-0.178, 0.089,-0.089, 0.178],
              [ 0.134,-0.089, 0.089,-0.178, 0.134,-0.089, 0.089,-0.134],
              [-0.089, 0.134,-0.134, 0.089,-0.089, 0.134,-0.134, 0.089]
            ],
            "keys": [
              [ 0.089,-0.134, 0.134,-0.089, 0.089,-0.134, 0.089,-0.089],
              [-0.134, 0.089,-0.089, 0.134,-0.089, 0.089,-0.134, 0.134],
              [ 0.134,-0.089, 0.089,-0.134, 0.134,-0.089, 0.134,-0.134],
              [-0.089, 0.134,-0.134, 0.089,-0.134, 0.134,-0.089, 0.089],
              [ 0.089,-0.134, 0.134,-0.089, 0.089,-0.134, 0.089,-0.089],
              [-0.134, 0.089,-0.089, 0.134,-0.089, 0.089,-0.134, 0.134],
              [ 0.134,-0.089, 0.089,-0.134, 0.134,-0.089, 0.134,-0.134],
              [-0.089, 0.134,-0.134, 0.089,-0.134, 0.134,-0.089, 0.089]
            ],
            "values": [
              [ 0.134,-0.089, 0.089,-0.134, 0.134,-0.089, 0.089,-0.134],
              [-0.089, 0.134,-0.134, 0.089,-0.089, 0.134,-0.089, 0.089],
              [ 0.089,-0.134, 0.134,-0.089, 0.089,-0.134, 0.134,-0.089],
              [-0.134, 0.089,-0.089, 0.134,-0.134, 0.089,-0.134, 0.134],
              [ 0.134,-0.089, 0.089,-0.134, 0.134,-0.089, 0.089,-0.134],
              [-0.089, 0.134,-0.134, 0.089,-0.089, 0.134,-0.089, 0.089],
              [ 0.089,-0.134, 0.134,-0.089, 0.089,-0.134, 0.134,-0.089],
              [-0.134, 0.089,-0.089, 0.134,-0.134, 0.089,-0.134, 0.134]
            ],
            "scores": [
              [ 0.045, 0.034, 0.023, 0.012, 0.023, 0.012, 0.023, 0.012],
              [ 0.034, 0.045, 0.034, 0.023, 0.012, 0.023, 0.012, 0.023],
              [ 0.023, 0.034, 0.045, 0.034, 0.023, 0.012, 0.023, 0.012],
              [ 0.012, 0.023, 0.034, 0.045, 0.034, 0.023, 0.012, 0.023],
              [ 0.023, 0.012, 0.023, 0.034, 0.045, 0.034, 0.023, 0.012],
              [ 0.012, 0.023, 0.012, 0.023, 0.034, 0.045, 0.034, 0.023],
              [ 0.023, 0.012, 0.023, 0.012, 0.023, 0.034, 0.045, 0.034],
              [ 0.012, 0.023, 0.012, 0.023, 0.012, 0.023, 0.034, 0.045]
            ],
            "weights": [
              [ 0.136, 0.134, 0.133, 0.131, 0.103, 0.101, 0.133, 0.129],
              [ 0.134, 0.136, 0.134, 0.133, 0.101, 0.103, 0.126, 0.133],
              [ 0.133, 0.134, 0.136, 0.134, 0.103, 0.101, 0.126, 0.133],
              [ 0.101, 0.103, 0.134, 0.136, 0.134, 0.103, 0.126, 0.163],
              [ 0.133, 0.101, 0.103, 0.134, 0.136, 0.134, 0.126, 0.133],
              [ 0.101, 0.103, 0.101, 0.103, 0.134, 0.136, 0.134, 0.188],
              [ 0.103, 0.101, 0.103, 0.101, 0.103, 0.134, 0.136, 0.219],
              [ 0.101, 0.103, 0.101, 0.103, 0.101, 0.103, 0.134, 0.254]
            ],
            "output": [
              [ 0.005,-0.003, 0.005,-0.005, 0.008,-0.003, 0.005,-0.005],
              [-0.003, 0.005,-0.005, 0.005,-0.003, 0.005,-0.003, 0.003],
              [ 0.003,-0.005, 0.005,-0.003, 0.005,-0.005, 0.008,-0.003],
              [-0.005, 0.003,-0.003, 0.008,-0.005, 0.003,-0.005, 0.005],
              [ 0.005,-0.003, 0.003,-0.005, 0.008,-0.003, 0.003,-0.005],
              [-0.005, 0.005,-0.005, 0.005,-0.003, 0.005,-0.005, 0.005],
              [ 0.003,-0.005, 0.008,-0.003, 0.003,-0.005, 0.008,-0.003],
              [-0.005, 0.003,-0.003, 0.005,-0.005, 0.003,-0.005, 0.008]
            ]
          }
        ],
        "combinedOutput": [
          [ 0.078,-0.045, 0.023,-0.067, 0.045,-0.034, 0.078,-0.023,-0.023, 0.067,-0.078, 0.034,-0.045, 0.078,-0.023, 0.012, 0.023,-0.012, 0.034,-0.023, 0.023,-0.034, 0.034,-0.012, 0.005,-0.003, 0.005,-0.005, 0.008,-0.003, 0.005,-0.005],
          [ 0.045,-0.012, 0.034,-0.045, 0.012,-0.034, 0.045,-0.012, 0.012,-0.023, 0.034,-0.056, 0.023,-0.034, 0.045,-0.012,-0.034, 0.045,-0.056, 0.023,-0.034, 0.023,-0.023, 0.056,-0.003, 0.005,-0.005, 0.005,-0.003, 0.005,-0.003, 0.003],
          [ 0.023,-0.034, 0.045,-0.023, 0.034,-0.056, 0.045,-0.023,-0.034, 0.034,-0.023, 0.045,-0.034, 0.023,-0.012, 0.034,-0.023, 0.034,-0.034, 0.012,-0.012, 0.012,-0.012, 0.034, 0.003,-0.005, 0.005,-0.003, 0.005,-0.005, 0.008,-0.003],
          [-0.023, 0.012,-0.012, 0.034,-0.023, 0.012,-0.012, 0.023, 0.023,-0.045, 0.056,-0.012, 0.012,-0.045, 0.034,-0.023,-0.012, 0.012,-0.012, 0.034,-0.023, 0.023,-0.034, 0.023,-0.005, 0.003,-0.003, 0.008,-0.005, 0.003,-0.005, 0.005],
          [-0.012,-0.023, 0.034,-0.012, 0.045,-0.012, 0.023,-0.045,-0.045, 0.034,-0.023, 0.067,-0.034, 0.012,-0.045, 0.045, 0.034,-0.056, 0.034,-0.056, 0.067,-0.034, 0.056,-0.056, 0.005,-0.003, 0.003,-0.005, 0.008,-0.003, 0.003,-0.005],
          [-0.034, 0.012,-0.045, 0.034,-0.012, 0.045,-0.034, 0.012, 0.045,-0.023, 0.012,-0.034, 0.056,-0.034, 0.012,-0.034,-0.023, 0.034,-0.045, 0.034,-0.023, 0.034,-0.034, 0.045,-0.005, 0.005,-0.005, 0.005,-0.003, 0.005,-0.005, 0.005],
          [ 0.012,-0.034, 0.023,-0.045, 0.045,-0.023, 0.056,-0.045, 0.056,-0.012, 0.023,-0.045, 0.067,-0.023, 0.023,-0.067, 0.012,-0.045, 0.045,-0.034, 0.045,-0.023, 0.034,-0.045, 0.003,-0.005, 0.008,-0.003, 0.003,-0.005, 0.008,-0.003],
          [-0.023, 0.034,-0.034, 0.012,-0.023, 0.034,-0.023, 0.023, 0.034,-0.034, 0.034,-0.023, 0.034,-0.034, 0.045,-0.045, 0.012,-0.034, 0.023,-0.012, 0.034,-0.012, 0.023,-0.023,-0.005, 0.003,-0.003, 0.005,-0.005, 0.003,-0.005, 0.008]
        ]
      },
      "ffnOutput": [
        [ 0.101,-0.023, 0.045,-0.045, 0.067,-0.012, 0.101,-0.001,-0.001, 0.089,-0.056, 0.056,-0.023, 0.101,-0.001, 0.034, 0.045, 0.010, 0.056,-0.001, 0.045,-0.012, 0.056, 0.010, 0.027, 0.019, 0.027, 0.017, 0.030, 0.019, 0.027, 0.017],
        [ 0.067, 0.010, 0.056,-0.023, 0.034,-0.012, 0.067, 0.010, 0.034,-0.001, 0.056,-0.034, 0.045,-0.012, 0.067, 0.010,-0.012, 0.067,-0.034, 0.045,-0.012, 0.045,-0.001, 0.078, 0.019, 0.027, 0.017, 0.027, 0.019, 0.027, 0.019, 0.025],
        [ 0.045,-0.012, 0.067,-0.001, 0.056,-0.034, 0.067,-0.001,-0.012, 0.056,-0.001, 0.067,-0.012, 0.045, 0.010, 0.056,-0.001, 0.056,-0.012, 0.034, 0.010, 0.034, 0.010, 0.056, 0.025, 0.017, 0.027, 0.019, 0.027, 0.017, 0.030, 0.019],
        [-0.001, 0.034, 0.010, 0.056,-0.001, 0.034, 0.010, 0.045, 0.045,-0.023, 0.078, 0.010, 0.034,-0.023, 0.056,-0.001, 0.010, 0.034, 0.010, 0.056,-0.001, 0.045,-0.012, 0.045, 0.017, 0.025, 0.019, 0.030, 0.017, 0.025, 0.017, 0.027],
        [ 0.010,-0.001, 0.056, 0.010, 0.067, 0.010, 0.045,-0.023,-0.023, 0.056,-0.001, 0.089,-0.012, 0.034,-0.023, 0.067, 0.056,-0.034, 0.056,-0.034, 0.089,-0.012, 0.078,-0.034, 0.027, 0.019, 0.025, 0.017, 0.030, 0.019, 0.025, 0.017],
        [-0.012, 0.034,-0.023, 0.056, 0.010, 0.067,-0.012, 0.034, 0.067,-0.001, 0.034,-0.012, 0.078,-0.012, 0.034,-0.012,-0.001, 0.056,-0.023, 0.056,-0.001, 0.056,-0.012, 0.067, 0.017, 0.027, 0.017, 0.027, 0.019, 0.027, 0.017, 0.027],
        [ 0.034,-0.012, 0.045,-0.023, 0.067,-0.001, 0.078,-0.023, 0.078, 0.010, 0.045,-0.023, 0.089,-0.001, 0.045,-0.045, 0.034,-0.023, 0.067,-0.012, 0.067,-0.001, 0.056,-0.023, 0.025, 0.017, 0.030, 0.019, 0.025, 0.017, 0.030, 0.019],
        [-0.001, 0.056,-0.012, 0.034,-0.001, 0.056,-0.001, 0.045, 0.056,-0.012, 0.056,-0.001, 0.056,-0.012, 0.067,-0.023, 0.034,-0.012, 0.045, 0.010, 0.056, 0.010, 0.045,-0.001, 0.017, 0.025, 0.019, 0.027, 0.017, 0.025, 0.017, 0.030]
      ],
      "layerOutput": [
        [ 0.091,-0.021, 0.041,-0.041, 0.060,-0.011, 0.091,-0.001,-0.001, 0.080,-0.050, 0.050,-0.021, 0.091,-0.001, 0.031, 0.041, 0.009, 0.050,-0.001, 0.041,-0.011, 0.050, 0.009, 0.024, 0.017, 0.024, 0.015, 0.027, 0.017, 0.024, 0.015],
        [ 0.060, 0.009, 0.050,-0.021, 0.031,-0.011, 0.060, 0.009, 0.031,-0.001, 0.050,-0.031, 0.041,-0.011, 0.060, 0.009,-0.011, 0.060,-0.031, 0.041,-0.011, 0.041,-0.001, 0.070, 0.017, 0.024, 0.015, 0.024, 0.017, 0.024, 0.017, 0.023],
        [ 0.041,-0.011, 0.060,-0.001, 0.050,-0.031, 0.060,-0.001,-0.011, 0.050,-0.001, 0.060,-0.011, 0.041, 0.009, 0.050,-0.001, 0.050,-0.011, 0.031, 0.009, 0.031, 0.009, 0.050, 0.023, 0.015, 0.024, 0.017, 0.024, 0.015, 0.027, 0.017],
        [-0.001, 0.031, 0.009, 0.050,-0.001, 0.031, 0.009, 0.041, 0.041,-0.021, 0.070, 0.009, 0.031,-0.021, 0.050,-0.001, 0.009, 0.031, 0.009, 0.050,-0.001, 0.041,-0.011, 0.041, 0.015, 0.023, 0.017, 0.027, 0.015, 0.023, 0.015, 0.024],
        [ 0.009,-0.001, 0.050, 0.009, 0.060, 0.009, 0.041,-0.021,-0.021, 0.050,-0.001, 0.080,-0.011, 0.031,-0.021, 0.060, 0.050,-0.031, 0.050,-0.031, 0.080,-0.011, 0.070,-0.031, 0.024, 0.017, 0.023, 0.015, 0.027, 0.017, 0.023, 0.015],
        [-0.011, 0.031,-0.021, 0.050, 0.009, 0.060,-0.011, 0.031, 0.060,-0.001, 0.031,-0.011, 0.070,-0.011, 0.031,-0.011,-0.001, 0.050,-0.021, 0.050,-0.001, 0.050,-0.011, 0.060, 0.015, 0.024, 0.015, 0.024, 0.017, 0.024, 0.015, 0.024],
        [ 0.031,-0.011, 0.041,-0.021, 0.060,-0.001, 0.070,-0.021, 0.070, 0.009, 0.041,-0.021, 0.080,-0.001, 0.041,-0.041, 0.031,-0.021, 0.060,-0.011, 0.060,-0.001, 0.050,-0.021, 0.023, 0.015, 0.027, 0.017, 0.023, 0.015, 0.027, 0.017],
        [-0.001, 0.050,-0.011, 0.031,-0.001, 0.050,-0.001, 0.041, 0.050,-0.011, 0.050,-0.001, 0.050,-0.011, 0.060,-0.021, 0.031,-0.011, 0.041, 0.009, 0.050, 0.009, 0.041,-0.001, 0.015, 0.023, 0.017, 0.024, 0.015, 0.023, 0.015, 0.027]
      ]
    },
    {
      "selfAttention": {
        "heads": [
          {
            "queries": [[ 0.289,-0.156, 0.189,-0.112, 0.245,-0.189, 0.112,-0.278],[-0.189, 0.245,-0.112, 0.323,-0.145, 0.189,-0.278, 0.112],[ 0.112,-0.278, 0.189,-0.145, 0.278,-0.112, 0.189,-0.323],[-0.145, 0.189,-0.278, 0.112,-0.189, 0.278,-0.112, 0.145],[ 0.189,-0.112, 0.278,-0.189, 0.145,-0.278, 0.112,-0.189],[-0.112, 0.145,-0.189, 0.278,-0.112, 0.189,-0.278, 0.112],[ 0.145,-0.278, 0.112,-0.189, 0.278,-0.145, 0.189,-0.112],[-0.278, 0.112,-0.145, 0.189,-0.278, 0.112,-0.189, 0.278]],
            "keys": [[ 0.189,-0.278, 0.112,-0.145, 0.278,-0.112, 0.189,-0.278],[-0.112, 0.189,-0.278, 0.112,-0.189, 0.278,-0.112, 0.145],[ 0.278,-0.112, 0.189,-0.278, 0.112,-0.189, 0.278,-0.112],[-0.189, 0.278,-0.112, 0.189,-0.278, 0.112,-0.189, 0.278],[ 0.112,-0.189, 0.278,-0.112, 0.189,-0.278, 0.112,-0.189],[-0.278, 0.112,-0.189, 0.278,-0.112, 0.189,-0.278, 0.112],[ 0.189,-0.278, 0.112,-0.189, 0.278,-0.112, 0.189,-0.278],[-0.112, 0.189,-0.112, 0.112,-0.189, 0.278,-0.112, 0.189]],
            "values": [[ 0.245,-0.189, 0.112,-0.278, 0.145,-0.189, 0.278,-0.112],[-0.112, 0.278,-0.189, 0.145,-0.278, 0.112,-0.145, 0.278],[ 0.189,-0.112, 0.278,-0.145, 0.112,-0.278, 0.189,-0.145],[-0.278, 0.145,-0.112, 0.278,-0.189, 0.145,-0.112, 0.189],[ 0.112,-0.278, 0.189,-0.112, 0.278,-0.112, 0.145,-0.278],[-0.189, 0.112,-0.278, 0.189,-0.112, 0.278,-0.189, 0.112],[ 0.145,-0.189, 0.112,-0.278, 0.189,-0.145, 0.278,-0.189],[-0.145, 0.189,-0.145, 0.112,-0.189, 0.189,-0.112, 0.145]],
            "scores": [[ 0.512, 0.345,-0.112,-0.289,-0.189,-0.345,-0.289,-0.345],[ 0.289, 0.534, 0.345,-0.112,-0.189,-0.289,-0.345,-0.289],[-0.112, 0.289, 0.523, 0.345,-0.112,-0.189,-0.289,-0.345],[-0.289,-0.112, 0.289, 0.512, 0.345,-0.112,-0.189,-0.289],[-0.189,-0.289,-0.112, 0.289, 0.501, 0.345,-0.112,-0.189],[-0.345,-0.189,-0.289,-0.112, 0.289, 0.534, 0.345,-0.112],[-0.289,-0.345,-0.189,-0.289,-0.112, 0.289, 0.523, 0.345],[-0.345,-0.289,-0.345,-0.189,-0.289,-0.112, 0.289, 0.512]],
            "weights": [[ 0.304, 0.257, 0.163, 0.136, 0.036, 0.025, 0.042, 0.037],[ 0.192, 0.245, 0.203, 0.128, 0.047, 0.042, 0.063, 0.080],[ 0.098, 0.147, 0.185, 0.155, 0.098, 0.091, 0.122, 0.104],[ 0.073, 0.087, 0.130, 0.163, 0.138, 0.087, 0.170, 0.152],[ 0.081, 0.073, 0.087, 0.130, 0.161, 0.138, 0.181, 0.149],[ 0.060, 0.070, 0.064, 0.076, 0.114, 0.146, 0.264, 0.206],[ 0.056, 0.053, 0.061, 0.056, 0.067, 0.100, 0.313, 0.294],[ 0.045, 0.048, 0.045, 0.053, 0.048, 0.057, 0.337, 0.367]],
            "output": [[ 0.089,-0.056, 0.034,-0.078, 0.056,-0.045, 0.089,-0.034],[ 0.056,-0.023, 0.045,-0.056, 0.023,-0.045, 0.056,-0.023],[ 0.034,-0.045, 0.056,-0.034, 0.045,-0.067, 0.056,-0.034],[-0.034, 0.023,-0.023, 0.045,-0.034, 0.023,-0.023, 0.034],[-0.023,-0.034, 0.045,-0.023, 0.056,-0.023, 0.034,-0.056],[-0.045, 0.023,-0.056, 0.045,-0.023, 0.056,-0.045, 0.023],[ 0.023,-0.045, 0.034,-0.056, 0.056,-0.034, 0.067,-0.056],[-0.034, 0.045,-0.045, 0.023,-0.034, 0.045,-0.034, 0.034]]
          },
          {
            "queries": [[ 0.145,-0.189, 0.278,-0.112, 0.189,-0.323, 0.112,-0.145],[-0.278, 0.112,-0.189, 0.278,-0.112, 0.145,-0.278, 0.189],[ 0.189,-0.112, 0.145,-0.278, 0.112,-0.189, 0.278,-0.112],[-0.112, 0.278,-0.112, 0.145,-0.278, 0.112,-0.189, 0.278],[ 0.112,-0.278, 0.189,-0.112, 0.278,-0.112, 0.145,-0.278],[-0.189, 0.145,-0.278, 0.112,-0.189, 0.278,-0.112, 0.145],[ 0.278,-0.112, 0.112,-0.189, 0.145,-0.278, 0.189,-0.112],[-0.145, 0.189,-0.145, 0.278,-0.112, 0.189,-0.145, 0.112]],
            "keys": [[ 0.112,-0.145, 0.278,-0.189, 0.112,-0.278, 0.145,-0.112],[-0.189, 0.278,-0.112, 0.145,-0.189, 0.112,-0.278, 0.189],[ 0.278,-0.112, 0.145,-0.278, 0.189,-0.112, 0.112,-0.189],[-0.112, 0.145,-0.189, 0.278,-0.112, 0.189,-0.145, 0.112],[ 0.145,-0.278, 0.112,-0.112, 0.278,-0.189, 0.189,-0.278],[-0.278, 0.112,-0.278, 0.145,-0.189, 0.112,-0.112, 0.145],[ 0.189,-0.189, 0.189,-0.112, 0.145,-0.278, 0.278,-0.112],[-0.112, 0.145,-0.112, 0.189,-0.278, 0.189,-0.189, 0.278]],
            "values": [[ 0.189,-0.278, 0.112,-0.145, 0.278,-0.112, 0.145,-0.189],[-0.145, 0.189,-0.278, 0.112,-0.189, 0.278,-0.112, 0.145],[ 0.112,-0.145, 0.189,-0.278, 0.112,-0.189, 0.278,-0.112],[-0.278, 0.112,-0.112, 0.189,-0.278, 0.112,-0.145, 0.278],[ 0.145,-0.189, 0.278,-0.112, 0.145,-0.278, 0.189,-0.145],[-0.112, 0.278,-0.189, 0.145,-0.112, 0.189,-0.278, 0.112],[ 0.278,-0.112, 0.145,-0.189, 0.278,-0.145, 0.112,-0.278],[-0.189, 0.145,-0.112, 0.278,-0.145, 0.112,-0.189, 0.189]],
            "scores": [[ 0.112, 0.578,-0.112,-0.289,-0.189,-0.345,-0.112,-0.289],[ 0.189, 0.112, 0.534, 0.289,-0.112,-0.189,-0.289,-0.189],[-0.112, 0.289, 0.112, 0.556,-0.112,-0.289,-0.189, 0.112],[-0.289,-0.112,-0.112, 0.112, 0.578,-0.112,-0.289, 0.112],[-0.189,-0.289, 0.112,-0.112, 0.112, 0.112,-0.289, 0.578],[-0.345,-0.189,-0.289, 0.112, 0.112, 0.112, 0.534,-0.112],[-0.112,-0.289,-0.189,-0.289,-0.112, 0.112, 0.112, 0.578],[-0.289, 0.112,-0.345,-0.112, 0.345,-0.289, 0.534,-0.112]],
            "weights": [[ 0.103, 0.328, 0.083, 0.069, 0.076, 0.065, 0.103, 0.173],[ 0.136, 0.126, 0.192, 0.150, 0.101, 0.093, 0.084, 0.118],[ 0.084, 0.125, 0.105, 0.164, 0.084, 0.070, 0.078, 0.290],[ 0.069, 0.083, 0.083, 0.103, 0.165, 0.083, 0.069, 0.345],[ 0.076, 0.069, 0.103, 0.083, 0.103, 0.103, 0.069, 0.394],[ 0.059, 0.069, 0.063, 0.094, 0.094, 0.094, 0.143, 0.384],[ 0.076, 0.064, 0.071, 0.064, 0.076, 0.095, 0.095, 0.459],[ 0.060, 0.089, 0.056, 0.072, 0.113, 0.060, 0.273, 0.277]],
            "output": [[-0.034, 0.078,-0.089, 0.045,-0.056, 0.089,-0.034, 0.023],[ 0.023,-0.034, 0.045,-0.067, 0.034,-0.045, 0.056,-0.023],[-0.045, 0.045,-0.034, 0.056,-0.045, 0.034,-0.023, 0.045],[ 0.034,-0.056, 0.067,-0.023, 0.023,-0.056, 0.045,-0.034],[-0.056, 0.045,-0.034, 0.078,-0.045, 0.023,-0.056, 0.056],[ 0.056,-0.034, 0.023,-0.045, 0.067,-0.045, 0.023,-0.045],[ 0.067,-0.023, 0.034,-0.056, 0.078,-0.034, 0.034,-0.078],[ 0.045,-0.045, 0.045,-0.034, 0.045,-0.045, 0.056,-0.056]]
          },
          {
            "queries": [[ 0.189,-0.112, 0.278,-0.145, 0.112,-0.278, 0.189,-0.112],[-0.112, 0.189,-0.145, 0.278,-0.112, 0.145,-0.189, 0.112],[ 0.145,-0.278, 0.112,-0.189, 0.278,-0.112, 0.145,-0.278],[-0.278, 0.112,-0.278, 0.112,-0.189, 0.278,-0.112, 0.189],[ 0.112,-0.189, 0.189,-0.112, 0.145,-0.189, 0.278,-0.112],[-0.189, 0.145,-0.112, 0.189,-0.278, 0.112,-0.145, 0.278],[ 0.278,-0.145, 0.112,-0.278, 0.189,-0.112, 0.112,-0.189],[-0.145, 0.278,-0.189, 0.112,-0.145, 0.189,-0.278, 0.112]],
            "keys": [[ 0.145,-0.189, 0.112,-0.278, 0.189,-0.112, 0.145,-0.278],[-0.278, 0.112,-0.189, 0.145,-0.278, 0.189,-0.112, 0.145],[ 0.112,-0.278, 0.278,-0.112, 0.112,-0.278, 0.189,-0.112],[-0.189, 0.145,-0.112, 0.278,-0.189, 0.112,-0.278, 0.189],[ 0.278,-0.112, 0.189,-0.189, 0.278,-0.189, 0.112,-0.189],[-0.112, 0.278,-0.278, 0.112,-0.112, 0.278,-0.189, 0.112],[ 0.189,-0.189, 0.112,-0.278, 0.189,-0.112, 0.278,-0.112],[-0.112, 0.112,-0.112, 0.189,-0.278, 0.112,-0.112, 0.278]],
            "values": [[ 0.278,-0.112, 0.145,-0.189, 0.112,-0.278, 0.189,-0.112],[-0.112, 0.278,-0.189, 0.112,-0.278, 0.112,-0.112, 0.278],[ 0.145,-0.189, 0.278,-0.112, 0.189,-0.145, 0.112,-0.189],[-0.189, 0.112,-0.112, 0.278,-0.112, 0.189,-0.278, 0.112],[ 0.112,-0.278, 0.189,-0.145, 0.278,-0.112, 0.145,-0.278],[-0.278, 0.112,-0.145, 0.189,-0.189, 0.278,-0.189, 0.112],[ 0.189,-0.145, 0.112,-0.278, 0.189,-0.189, 0.278,-0.145],[-0.145, 0.189,-0.278, 0.145,-0.112, 0.112,-0.112, 0.189]],
            "scores": [[ 0.189, 0.112,-0.112,-0.189, 0.112,-0.189, 0.112, 0.345],[-0.112, 0.189,-0.112, 0.112,-0.289, 0.112, 0.112, 0.289],[-0.189, 0.112, 0.189,-0.112, 0.112,-0.289, 0.112, 0.112],[ 0.112,-0.189, 0.112, 0.112,-0.112, 0.112,-0.112, 0.112],[ 0.112,-0.289, 0.112,-0.112, 0.112,-0.112, 0.489, 0.467],[-0.112, 0.112,-0.189, 0.112,-0.112, 0.112, 0.189, 0.289],[-0.112,-0.112,-0.112,-0.289, 0.467,-0.189, 0.112, 0.389],[ 0.112,-0.112,-0.289, 0.112, 0.389,-0.112, 0.345, 0.112]],
            "weights": [[ 0.149, 0.138, 0.110, 0.102, 0.138, 0.102, 0.138, 0.123],[ 0.096, 0.130, 0.096, 0.120, 0.080, 0.120, 0.120, 0.238],[ 0.094, 0.127, 0.137, 0.101, 0.127, 0.085, 0.127, 0.202],[ 0.122, 0.090, 0.122, 0.122, 0.098, 0.122, 0.098, 0.226],[ 0.082, 0.055, 0.082, 0.065, 0.082, 0.065, 0.285, 0.284],[ 0.088, 0.110, 0.081, 0.110, 0.088, 0.110, 0.119, 0.294],[ 0.071, 0.071, 0.071, 0.060, 0.127, 0.066, 0.089, 0.445],[ 0.095, 0.076, 0.064, 0.095, 0.125, 0.076, 0.120, 0.349]],
            "output": [[ 0.034,-0.023, 0.045,-0.034, 0.034,-0.045, 0.045,-0.023],[-0.045, 0.056,-0.067, 0.034,-0.045, 0.034,-0.034, 0.067],[-0.034, 0.045,-0.045, 0.023,-0.023, 0.023,-0.023, 0.045],[-0.023, 0.023,-0.023, 0.045,-0.034, 0.034,-0.045, 0.034],[ 0.045,-0.067, 0.045,-0.067, 0.078,-0.045, 0.067,-0.067],[-0.034, 0.045,-0.056, 0.045,-0.034, 0.045,-0.045, 0.056],[ 0.023,-0.056, 0.056,-0.045, 0.056,-0.034, 0.045,-0.056],[ 0.023,-0.045, 0.034,-0.023, 0.045,-0.023, 0.034,-0.034]]
          },
          {
            "queries": [[ 0.112,-0.145, 0.189,-0.112, 0.145,-0.189, 0.112,-0.145],[-0.145, 0.112,-0.112, 0.189,-0.145, 0.112,-0.145, 0.112],[ 0.145,-0.112, 0.112,-0.145, 0.189,-0.112, 0.145,-0.189],[-0.112, 0.145,-0.189, 0.112,-0.112, 0.145,-0.112, 0.145],[ 0.112,-0.145, 0.145,-0.112, 0.112,-0.145, 0.189,-0.112],[-0.145, 0.112,-0.112, 0.145,-0.189, 0.112,-0.112, 0.189],[ 0.145,-0.112, 0.112,-0.189, 0.145,-0.112, 0.112,-0.145],[-0.112, 0.145,-0.145, 0.112,-0.112, 0.145,-0.145, 0.112]],
            "keys": [[ 0.112,-0.145, 0.145,-0.112, 0.112,-0.145, 0.112,-0.112],[-0.145, 0.112,-0.112, 0.145,-0.112, 0.112,-0.145, 0.145],[ 0.145,-0.112, 0.112,-0.145, 0.145,-0.112, 0.145,-0.145],[-0.112, 0.145,-0.145, 0.112,-0.145, 0.145,-0.112, 0.112],[ 0.112,-0.145, 0.145,-0.112, 0.112,-0.145, 0.112,-0.112],[-0.145, 0.112,-0.112, 0.145,-0.112, 0.112,-0.145, 0.145],[ 0.145,-0.112, 0.112,-0.145, 0.145,-0.112, 0.145,-0.145],[-0.112, 0.145,-0.145, 0.112,-0.145, 0.145,-0.112, 0.112]],
            "values": [[ 0.145,-0.112, 0.112,-0.145, 0.145,-0.112, 0.112,-0.145],[-0.112, 0.145,-0.145, 0.112,-0.112, 0.145,-0.112, 0.112],[ 0.112,-0.145, 0.145,-0.112, 0.112,-0.145, 0.145,-0.112],[-0.145, 0.112,-0.112, 0.145,-0.145, 0.112,-0.145, 0.145],[ 0.145,-0.112, 0.112,-0.145, 0.145,-0.112, 0.112,-0.145],[-0.112, 0.145,-0.145, 0.112,-0.112, 0.145,-0.112, 0.112],[ 0.112,-0.145, 0.145,-0.112, 0.112,-0.145, 0.145,-0.112],[-0.145, 0.112,-0.112, 0.145,-0.145, 0.112,-0.145, 0.145]],
            "scores": [[ 0.045, 0.034, 0.023, 0.012, 0.023, 0.012, 0.023, 0.012],[ 0.034, 0.045, 0.034, 0.023, 0.012, 0.023, 0.012, 0.023],[ 0.023, 0.034, 0.045, 0.034, 0.023, 0.012, 0.023, 0.012],[ 0.012, 0.023, 0.034, 0.045, 0.034, 0.023, 0.012, 0.023],[ 0.023, 0.012, 0.023, 0.034, 0.045, 0.034, 0.023, 0.012],[ 0.012, 0.023, 0.012, 0.023, 0.034, 0.045, 0.034, 0.023],[ 0.023, 0.012, 0.023, 0.012, 0.023, 0.034, 0.045, 0.034],[ 0.012, 0.023, 0.012, 0.023, 0.012, 0.023, 0.034, 0.045]],
            "weights": [[ 0.137, 0.136, 0.134, 0.133, 0.104, 0.103, 0.124, 0.129],[ 0.136, 0.137, 0.136, 0.134, 0.103, 0.104, 0.117, 0.133],[ 0.134, 0.136, 0.137, 0.136, 0.104, 0.103, 0.117, 0.133],[ 0.103, 0.104, 0.136, 0.137, 0.136, 0.104, 0.127, 0.153],[ 0.134, 0.103, 0.104, 0.136, 0.137, 0.136, 0.117, 0.133],[ 0.103, 0.104, 0.103, 0.104, 0.136, 0.137, 0.136, 0.177],[ 0.104, 0.103, 0.104, 0.103, 0.104, 0.136, 0.137, 0.209],[ 0.103, 0.104, 0.103, 0.104, 0.103, 0.104, 0.136, 0.243]],
            "output": [[ 0.008,-0.005, 0.008,-0.008, 0.012,-0.005, 0.008,-0.008],[-0.005, 0.008,-0.008, 0.008,-0.005, 0.008,-0.005, 0.005],[ 0.005,-0.008, 0.008,-0.005, 0.008,-0.008, 0.012,-0.005],[-0.008, 0.005,-0.005, 0.012,-0.008, 0.005,-0.008, 0.008],[ 0.008,-0.005, 0.005,-0.008, 0.012,-0.005, 0.005,-0.008],[-0.008, 0.008,-0.008, 0.008,-0.005, 0.008,-0.008, 0.008],[ 0.005,-0.008, 0.012,-0.005, 0.005,-0.008, 0.012,-0.005],[-0.008, 0.005,-0.005, 0.008,-0.008, 0.005,-0.008, 0.012]]
          }
        ],
        "combinedOutput": [
          [ 0.089,-0.056, 0.034,-0.078, 0.056,-0.045, 0.089,-0.034,-0.034, 0.078,-0.089, 0.045,-0.056, 0.089,-0.034, 0.023, 0.034,-0.023, 0.045,-0.034, 0.034,-0.045, 0.045,-0.023, 0.008,-0.005, 0.008,-0.008, 0.012,-0.005, 0.008,-0.008],
          [ 0.056,-0.023, 0.045,-0.056, 0.023,-0.045, 0.056,-0.023, 0.023,-0.034, 0.045,-0.067, 0.034,-0.045, 0.056,-0.023,-0.045, 0.056,-0.067, 0.034,-0.045, 0.034,-0.034, 0.067,-0.005, 0.008,-0.008, 0.008,-0.005, 0.008,-0.005, 0.005],
          [ 0.034,-0.045, 0.056,-0.034, 0.045,-0.067, 0.056,-0.034,-0.045, 0.045,-0.034, 0.056,-0.045, 0.034,-0.023, 0.045,-0.034, 0.045,-0.045, 0.023,-0.023, 0.023,-0.023, 0.045, 0.005,-0.008, 0.008,-0.005, 0.008,-0.008, 0.012,-0.005],
          [-0.034, 0.023,-0.023, 0.045,-0.034, 0.023,-0.023, 0.034, 0.034,-0.056, 0.067,-0.023, 0.023,-0.056, 0.045,-0.034,-0.023, 0.023,-0.023, 0.045,-0.034, 0.034,-0.045, 0.034,-0.008, 0.005,-0.005, 0.012,-0.008, 0.005,-0.008, 0.008],
          [-0.023,-0.034, 0.045,-0.023, 0.056,-0.023, 0.034,-0.056,-0.056, 0.045,-0.034, 0.078,-0.045, 0.023,-0.056, 0.056, 0.045,-0.067, 0.045,-0.067, 0.078,-0.045, 0.067,-0.067, 0.008,-0.005, 0.005,-0.008, 0.012,-0.005, 0.005,-0.008],
          [-0.045, 0.023,-0.056, 0.045,-0.023, 0.056,-0.045, 0.023, 0.056,-0.034, 0.023,-0.045, 0.067,-0.045, 0.023,-0.045,-0.034, 0.045,-0.056, 0.045,-0.034, 0.045,-0.045, 0.056,-0.008, 0.008,-0.008, 0.008,-0.005, 0.008,-0.008, 0.008],
          [ 0.023,-0.045, 0.034,-0.056, 0.056,-0.034, 0.067,-0.056, 0.067,-0.023, 0.034,-0.056, 0.078,-0.034, 0.034,-0.078, 0.023,-0.056, 0.056,-0.045, 0.056,-0.034, 0.045,-0.056, 0.005,-0.008, 0.012,-0.005, 0.005,-0.008, 0.012,-0.005],
          [-0.034, 0.045,-0.045, 0.023,-0.034, 0.045,-0.034, 0.034, 0.045,-0.045, 0.045,-0.034, 0.045,-0.045, 0.056,-0.056, 0.023,-0.045, 0.034,-0.023, 0.045,-0.023, 0.034,-0.034,-0.008, 0.005,-0.005, 0.008,-0.008, 0.005,-0.008, 0.012]
        ]
      },
      "ffnOutput": [
        [ 0.112,-0.034, 0.056,-0.056, 0.078,-0.023, 0.112,-0.012,-0.012, 0.101,-0.067, 0.067,-0.034, 0.112,-0.012, 0.045, 0.056, 0.001, 0.067,-0.012, 0.056,-0.023, 0.067, 0.001, 0.030, 0.017, 0.030, 0.014, 0.034, 0.017, 0.030, 0.014],
        [ 0.078, 0.001, 0.067,-0.034, 0.045,-0.023, 0.078, 0.001, 0.045,-0.012, 0.067,-0.045, 0.056,-0.023, 0.078, 0.001,-0.023, 0.078,-0.045, 0.056,-0.023, 0.056,-0.012, 0.089, 0.017, 0.030, 0.014, 0.030, 0.017, 0.030, 0.017, 0.027],
        [ 0.056,-0.023, 0.078,-0.012, 0.067,-0.045, 0.078,-0.012,-0.023, 0.067,-0.012, 0.078,-0.023, 0.056, 0.001, 0.067,-0.012, 0.067,-0.023, 0.045, 0.001, 0.045, 0.001, 0.067, 0.027, 0.014, 0.030, 0.017, 0.030, 0.014, 0.034, 0.017],
        [-0.012, 0.045, 0.001, 0.067,-0.012, 0.045, 0.001, 0.056, 0.056,-0.034, 0.089, 0.001, 0.045,-0.034, 0.067,-0.012, 0.001, 0.045, 0.001, 0.067,-0.012, 0.056,-0.023, 0.056, 0.014, 0.027, 0.017, 0.034, 0.014, 0.027, 0.014, 0.030],
        [ 0.001,-0.012, 0.067, 0.001, 0.078, 0.001, 0.056,-0.034,-0.034, 0.067,-0.012, 0.101,-0.023, 0.045,-0.034, 0.078, 0.067,-0.045, 0.067,-0.045, 0.101,-0.023, 0.089,-0.045, 0.030, 0.017, 0.027, 0.014, 0.034, 0.017, 0.027, 0.014],
        [-0.023, 0.045,-0.034, 0.067, 0.001, 0.078,-0.023, 0.045, 0.078,-0.012, 0.045,-0.023, 0.089,-0.023, 0.045,-0.023,-0.012, 0.067,-0.034, 0.067,-0.012, 0.067,-0.023, 0.078, 0.014, 0.030, 0.014, 0.030, 0.017, 0.030, 0.014, 0.030],
        [ 0.045,-0.023, 0.056,-0.034, 0.078,-0.012, 0.089,-0.034, 0.089, 0.001, 0.056,-0.034, 0.101,-0.012, 0.056,-0.056, 0.045,-0.034, 0.078,-0.023, 0.078,-0.012, 0.067,-0.034, 0.027, 0.014, 0.034, 0.017, 0.027, 0.014, 0.034, 0.017],
        [-0.012, 0.067,-0.023, 0.045,-0.012, 0.067,-0.012, 0.056, 0.067,-0.023, 0.067,-0.012, 0.067,-0.023, 0.078,-0.034, 0.045,-0.023, 0.056, 0.001, 0.067, 0.001, 0.056,-0.012, 0.014, 0.027, 0.017, 0.030, 0.014, 0.027, 0.014, 0.034]
      ],
      "layerOutput": [
        [ 0.101,-0.031, 0.050,-0.050, 0.070,-0.021, 0.101,-0.011,-0.011, 0.091,-0.060, 0.060,-0.031, 0.101,-0.011, 0.041, 0.050, 0.001, 0.060,-0.011, 0.050,-0.021, 0.060, 0.001, 0.027, 0.015, 0.027, 0.013, 0.031, 0.015, 0.027, 0.013],
        [ 0.070, 0.001, 0.060,-0.031, 0.041,-0.021, 0.070, 0.001, 0.041,-0.011, 0.060,-0.041, 0.050,-0.021, 0.070, 0.001,-0.021, 0.070,-0.041, 0.050,-0.021, 0.050,-0.011, 0.080, 0.015, 0.027, 0.013, 0.027, 0.015, 0.027, 0.015, 0.024],
        [ 0.050,-0.021, 0.070,-0.011, 0.060,-0.041, 0.070,-0.011,-0.021, 0.060,-0.011, 0.070,-0.021, 0.050, 0.001, 0.060,-0.011, 0.060,-0.021, 0.041, 0.001, 0.041, 0.001, 0.060, 0.024, 0.013, 0.027, 0.015, 0.027, 0.013, 0.031, 0.015],
        [-0.011, 0.041, 0.001, 0.060,-0.011, 0.041, 0.001, 0.050, 0.050,-0.031, 0.080, 0.001, 0.041,-0.031, 0.060,-0.011, 0.001, 0.041, 0.001, 0.060,-0.011, 0.050,-0.021, 0.050, 0.013, 0.024, 0.015, 0.031, 0.013, 0.024, 0.013, 0.027],
        [ 0.001,-0.011, 0.060, 0.001, 0.070, 0.001, 0.050,-0.031,-0.031, 0.060,-0.011, 0.091,-0.021, 0.041,-0.031, 0.070, 0.060,-0.041, 0.060,-0.041, 0.091,-0.021, 0.080,-0.041, 0.027, 0.015, 0.024, 0.013, 0.031, 0.015, 0.024, 0.013],
        [-0.021, 0.041,-0.031, 0.060, 0.001, 0.070,-0.021, 0.041, 0.070,-0.011, 0.041,-0.021, 0.080,-0.021, 0.041,-0.021,-0.011, 0.060,-0.031, 0.060,-0.011, 0.060,-0.021, 0.070, 0.013, 0.027, 0.013, 0.027, 0.015, 0.027, 0.013, 0.027],
        [ 0.041,-0.021, 0.050,-0.031, 0.070,-0.011, 0.080,-0.031, 0.080, 0.001, 0.050,-0.031, 0.091,-0.011, 0.050,-0.050, 0.041,-0.031, 0.070,-0.021, 0.070,-0.011, 0.060,-0.031, 0.024, 0.013, 0.031, 0.015, 0.024, 0.013, 0.031, 0.015],
        [-0.011, 0.060,-0.021, 0.041,-0.011, 0.060,-0.011, 0.050, 0.060,-0.021, 0.060,-0.011, 0.060,-0.021, 0.070,-0.031, 0.041,-0.021, 0.050, 0.001, 0.060, 0.001, 0.050,-0.011, 0.013, 0.024, 0.015, 0.027, 0.013, 0.024, 0.013, 0.031]
      ]
    }
  ]
}
