{
  "sentence": "I went to the bank to skip rocks",
  "tokens": ["I", "went", "to", "the", "bank", "to", "skip", "rocks"],
  "tokenIds": [33, 34, 35, 15, 36, 35, 39, 40],
  "embeddings": [
    [ 0.289,-0.178, 0.134,-0.345, 0.178,-0.234, 0.367,-0.089, 0.178,-0.234, 0.367,-0.178, 0.134,-0.312, 0.234,-0.134, 0.189,-0.278, 0.134,-0.189, 0.312,-0.134, 0.134,-0.278, 0.234,-0.189, 0.134,-0.378, 0.212,-0.234, 0.278,-0.178],
    [-0.134, 0.278,-0.189, 0.178,-0.278, 0.234,-0.134, 0.345,-0.212, 0.134,-0.312, 0.189,-0.212, 0.278,-0.134, 0.234,-0.312, 0.212,-0.234, 0.178,-0.134, 0.312,-0.234, 0.134,-0.278, 0.212,-0.178, 0.312,-0.234, 0.134,-0.212, 0.278],
    [ 0.134,-0.312, 0.234,-0.178, 0.212,-0.278, 0.189,-0.212, 0.278,-0.134, 0.212,-0.312, 0.234,-0.178, 0.134,-0.278, 0.189,-0.212, 0.312,-0.134, 0.178,-0.234, 0.278,-0.134, 0.212,-0.312, 0.178,-0.234, 0.278,-0.212, 0.134,-0.189],
    [-0.234, 0.178,-0.278, 0.234,-0.134, 0.212,-0.312, 0.178,-0.234, 0.278,-0.134, 0.212,-0.278, 0.134,-0.189, 0.312,-0.178, 0.234,-0.212, 0.278,-0.234, 0.134,-0.212, 0.312,-0.134, 0.234,-0.278, 0.178,-0.212, 0.312,-0.234, 0.134],
    [ 0.212,-0.134, 0.312,-0.234, 0.278,-0.178, 0.134,-0.278, 0.212,-0.234, 0.278,-0.134, 0.178,-0.234, 0.312,-0.212, 0.134,-0.278, 0.234,-0.178, 0.278,-0.212, 0.134,-0.234, 0.312,-0.134, 0.212,-0.278, 0.178,-0.234, 0.212,-0.312],
    [-0.278, 0.212,-0.134, 0.278,-0.234, 0.134,-0.212, 0.234,-0.178, 0.312,-0.212, 0.134,-0.234, 0.278,-0.134, 0.178,-0.234, 0.312,-0.134, 0.212,-0.312, 0.178,-0.278, 0.212,-0.134, 0.278,-0.234, 0.134,-0.312, 0.212,-0.134, 0.234],
    [ 0.234,-0.278, 0.178,-0.212, 0.134,-0.312, 0.278,-0.134, 0.234,-0.178, 0.134,-0.278, 0.312,-0.134, 0.212,-0.234, 0.278,-0.134, 0.178,-0.312, 0.212,-0.234, 0.134,-0.178, 0.234,-0.278, 0.312,-0.134, 0.212,-0.278, 0.234,-0.134],
    [-0.178, 0.234,-0.212, 0.134,-0.312, 0.278,-0.234, 0.212,-0.134, 0.234,-0.278, 0.178,-0.134, 0.312,-0.234, 0.134,-0.212, 0.278,-0.312, 0.234,-0.134, 0.212,-0.312, 0.234,-0.178, 0.134,-0.212, 0.278,-0.134, 0.234,-0.312, 0.212]
  ],
  "positionalEncodings": [
    [ 0.000, 1.000, 0.000, 1.000, 0.000, 1.000, 0.000, 1.000, 0.000, 1.000, 0.000, 1.000, 0.000, 1.000, 0.000, 1.000, 0.000, 1.000, 0.000, 1.000, 0.000, 1.000, 0.000, 1.000, 0.000, 1.000, 0.000, 1.000, 0.000, 1.000, 0.000, 1.000],
    [ 0.841, 0.540, 0.603, 0.798, 0.364, 0.931, 0.199, 0.980, 0.109, 0.994, 0.059, 0.998, 0.032, 1.000, 0.017, 1.000, 0.010, 1.000, 0.005, 1.000, 0.003, 1.000, 0.002, 1.000, 0.001, 1.000, 0.001, 1.000, 0.000, 1.000, 0.000, 1.000],
    [ 0.909,-0.416, 0.930, 0.368, 0.681, 0.732, 0.389, 0.921, 0.216, 0.976, 0.118, 0.993, 0.064, 0.998, 0.035, 0.999, 0.019, 1.000, 0.010, 1.000, 0.006, 1.000, 0.003, 1.000, 0.002, 1.000, 0.001, 1.000, 0.001, 1.000, 0.000, 1.000],
    [ 0.141,-0.990, 0.974,-0.227, 0.908, 0.419, 0.565, 0.825, 0.322, 0.947, 0.177, 0.984, 0.096, 0.995, 0.052, 0.999, 0.028, 1.000, 0.015, 1.000, 0.008, 1.000, 0.005, 1.000, 0.003, 1.000, 0.001, 1.000, 0.001, 1.000, 0.000, 1.000],
    [-0.757,-0.654, 0.735,-0.678, 0.998, 0.056, 0.717, 0.697, 0.423, 0.906, 0.234, 0.972, 0.128, 0.992, 0.070, 0.998, 0.038, 0.999, 0.021, 1.000, 0.011, 1.000, 0.006, 1.000, 0.003, 1.000, 0.002, 1.000, 0.001, 1.000, 0.001, 1.000],
    [-0.959,-0.284, 0.268,-0.963, 0.920,-0.391, 0.839, 0.544, 0.520, 0.854, 0.291, 0.957, 0.160, 0.987, 0.087, 0.996, 0.047, 0.999, 0.026, 1.000, 0.014, 1.000, 0.008, 1.000, 0.004, 1.000, 0.002, 1.000, 0.001, 1.000, 0.001, 1.000],
    [-0.279, 0.960,-0.442,-0.897, 0.674,-0.739, 0.924, 0.383, 0.610, 0.793, 0.346, 0.938, 0.191, 0.982, 0.105, 0.995, 0.057, 0.998, 0.031, 1.000, 0.017, 1.000, 0.009, 1.000, 0.005, 1.000, 0.003, 1.000, 0.002, 1.000, 0.001, 1.000],
    [ 0.657, 0.754,-0.937,-0.350, 0.282,-0.959, 0.968, 0.253, 0.691, 0.723, 0.399, 0.917, 0.223, 0.975, 0.122, 0.993, 0.066, 0.998, 0.036, 1.000, 0.020, 1.000, 0.011, 1.000, 0.006, 1.000, 0.003, 1.000, 0.002, 1.000, 0.001, 1.000]
  ],
  "layers": [
    {
      "selfAttention": {
        "heads": [
          {
            "queries": [[ 0.234,-0.178, 0.134,-0.089, 0.267,-0.212, 0.134,-0.234],[-0.212, 0.189,-0.134, 0.278,-0.178, 0.212,-0.234, 0.134],[ 0.134,-0.234, 0.212,-0.178, 0.234,-0.134, 0.212,-0.278],[-0.178, 0.212,-0.234, 0.134,-0.212, 0.234,-0.134, 0.178],[ 0.212,-0.134, 0.234,-0.212, 0.178,-0.234, 0.134,-0.212],[-0.134, 0.178,-0.212, 0.234,-0.134, 0.212,-0.234, 0.134],[ 0.178,-0.234, 0.134,-0.212, 0.234,-0.178, 0.212,-0.134],[-0.234, 0.134,-0.178, 0.212,-0.234, 0.134,-0.212, 0.234]],
            "keys": [[ 0.212,-0.234, 0.134,-0.178, 0.234,-0.134, 0.212,-0.234],[-0.134, 0.212,-0.234, 0.134,-0.212, 0.234,-0.134, 0.178],[ 0.234,-0.134, 0.212,-0.234, 0.134,-0.212, 0.234,-0.134],[-0.212, 0.234,-0.134, 0.212,-0.234, 0.134,-0.212, 0.234],[ 0.134,-0.212, 0.234,-0.134, 0.212,-0.234, 0.134,-0.212],[-0.234, 0.134,-0.212, 0.234,-0.134, 0.212,-0.234, 0.134],[ 0.212,-0.234, 0.134,-0.212, 0.234,-0.134, 0.212,-0.234],[-0.134, 0.212,-0.134, 0.134,-0.212, 0.234,-0.134, 0.212]],
            "values": [[ 0.267,-0.212, 0.134,-0.234, 0.178,-0.212, 0.234,-0.134],[-0.134, 0.234,-0.212, 0.178,-0.234, 0.134,-0.178, 0.234],[ 0.212,-0.134, 0.234,-0.178, 0.134,-0.234, 0.212,-0.178],[-0.234, 0.178,-0.134, 0.234,-0.212, 0.178,-0.134, 0.212],[ 0.134,-0.234, 0.212,-0.134, 0.234,-0.134, 0.178,-0.234],[-0.212, 0.134,-0.234, 0.212,-0.134, 0.234,-0.212, 0.134],[ 0.178,-0.212, 0.134,-0.234, 0.212,-0.178, 0.234,-0.212],[-0.178, 0.212,-0.178, 0.134,-0.212, 0.212,-0.134, 0.178]],
            "scores": [[ 0.423, 0.289,-0.134,-0.234,-0.212,-0.278,-0.234,-0.278],[ 0.234, 0.456, 0.278,-0.134,-0.212,-0.234,-0.278,-0.234],[-0.134, 0.234, 0.445, 0.278,-0.134,-0.212,-0.234,-0.278],[-0.234,-0.134, 0.234, 0.434, 0.278,-0.134,-0.212,-0.234],[-0.212,-0.234,-0.134, 0.234, 0.423, 0.278,-0.134,-0.212],[-0.278,-0.212,-0.234,-0.134, 0.234, 0.456, 0.278,-0.134],[-0.234,-0.278,-0.212,-0.234,-0.134, 0.234, 0.445, 0.278],[-0.278,-0.234,-0.278,-0.212,-0.234,-0.134, 0.234, 0.434]],
            "weights": [[ 0.278, 0.243, 0.159, 0.144, 0.040, 0.030, 0.056, 0.050],[ 0.185, 0.231, 0.193, 0.128, 0.055, 0.052, 0.082, 0.074],[ 0.098, 0.142, 0.176, 0.148, 0.098, 0.091, 0.127, 0.120],[ 0.075, 0.083, 0.127, 0.155, 0.132, 0.083, 0.178, 0.167],[ 0.080, 0.074, 0.087, 0.126, 0.152, 0.132, 0.189, 0.160],[ 0.061, 0.065, 0.064, 0.070, 0.107, 0.127, 0.270, 0.236],[ 0.057, 0.054, 0.058, 0.054, 0.063, 0.092, 0.319, 0.303],[ 0.047, 0.050, 0.047, 0.050, 0.047, 0.054, 0.346, 0.359]],
            "output": [[ 0.067,-0.034, 0.023,-0.056, 0.034,-0.034, 0.067,-0.023],[ 0.034,-0.012, 0.023,-0.034, 0.012,-0.034, 0.034,-0.012],[ 0.023,-0.023, 0.034,-0.023, 0.023,-0.045, 0.034,-0.023],[-0.023, 0.012,-0.012, 0.023,-0.023, 0.012,-0.012, 0.023],[-0.012,-0.012, 0.023,-0.012, 0.034,-0.012, 0.023,-0.034],[-0.023, 0.012,-0.034, 0.023,-0.012, 0.034,-0.023, 0.012],[ 0.012,-0.023, 0.012,-0.034, 0.034,-0.023, 0.045,-0.034],[-0.012, 0.023,-0.023, 0.012,-0.023, 0.023,-0.012, 0.023]
            ]
          },
          {
            "queries": [[ 0.178,-0.212, 0.234,-0.134, 0.212,-0.278, 0.134,-0.178],[-0.234, 0.134,-0.212, 0.234,-0.134, 0.178,-0.234, 0.212],[ 0.212,-0.134, 0.178,-0.234, 0.134,-0.212, 0.234,-0.134],[-0.134, 0.234,-0.134, 0.178,-0.234, 0.134,-0.212, 0.234],[ 0.134,-0.234, 0.212,-0.134, 0.234,-0.134, 0.178,-0.234],[-0.212, 0.178,-0.234, 0.134,-0.212, 0.234,-0.134, 0.178],[ 0.234,-0.134, 0.134,-0.212, 0.178,-0.234, 0.212,-0.134],[-0.178, 0.212,-0.178, 0.234,-0.134, 0.212,-0.178, 0.134]],
            "keys": [[ 0.134,-0.178, 0.234,-0.212, 0.134,-0.234, 0.178,-0.134],[-0.212, 0.234,-0.134, 0.178,-0.212, 0.134,-0.234, 0.212],[ 0.234,-0.134, 0.178,-0.234, 0.212,-0.134, 0.134,-0.212],[-0.134, 0.178,-0.212, 0.234,-0.134, 0.212,-0.178, 0.134],[ 0.178,-0.234, 0.134,-0.134, 0.234,-0.212, 0.212,-0.234],[-0.234, 0.134,-0.234, 0.178,-0.212, 0.134,-0.134, 0.178],[ 0.212,-0.212, 0.212,-0.134, 0.178,-0.234, 0.234,-0.134],[-0.134, 0.178,-0.134, 0.212,-0.234, 0.212,-0.212, 0.234]],
            "values": [[ 0.212,-0.234, 0.134,-0.178, 0.234,-0.134, 0.178,-0.212],[-0.178, 0.212,-0.234, 0.134,-0.212, 0.234,-0.134, 0.178],[ 0.134,-0.178, 0.212,-0.234, 0.134,-0.212, 0.234,-0.134],[-0.234, 0.134,-0.134, 0.212,-0.234, 0.134,-0.178, 0.234],[ 0.178,-0.212, 0.234,-0.134, 0.178,-0.234, 0.212,-0.178],[-0.134, 0.234,-0.212, 0.178,-0.134, 0.212,-0.234, 0.134],[ 0.234,-0.134, 0.178,-0.212, 0.234,-0.178, 0.134,-0.234],[-0.212, 0.178,-0.134, 0.234,-0.178, 0.134,-0.212, 0.212]],
            "scores": [[ 0.134, 0.489,-0.134,-0.234,-0.212,-0.278,-0.134,-0.234],[ 0.212, 0.134, 0.445, 0.234,-0.134,-0.212,-0.234,-0.212],[-0.134, 0.234, 0.134, 0.467,-0.134,-0.234,-0.212, 0.134],[-0.234,-0.134,-0.134, 0.134, 0.489,-0.134,-0.234, 0.134],[-0.212,-0.234, 0.134,-0.134, 0.134, 0.134,-0.234, 0.489],[-0.278,-0.212,-0.234, 0.134, 0.134, 0.134, 0.445,-0.134],[-0.134,-0.234,-0.212,-0.234,-0.134, 0.134, 0.134, 0.489],[-0.234, 0.134,-0.278,-0.134, 0.278,-0.234, 0.445,-0.134]],
            "weights": [[ 0.112, 0.298, 0.085, 0.077, 0.079, 0.073, 0.112, 0.164],[ 0.140, 0.129, 0.177, 0.143, 0.099, 0.092, 0.089, 0.131],[ 0.085, 0.123, 0.111, 0.155, 0.085, 0.077, 0.079, 0.285],[ 0.073, 0.080, 0.080, 0.105, 0.150, 0.080, 0.073, 0.359],[ 0.079, 0.077, 0.112, 0.085, 0.112, 0.112, 0.077, 0.346],[ 0.063, 0.067, 0.065, 0.095, 0.095, 0.095, 0.129, 0.391],[ 0.079, 0.071, 0.074, 0.071, 0.079, 0.103, 0.103, 0.420],[ 0.062, 0.090, 0.060, 0.069, 0.104, 0.062, 0.245, 0.308]],
            "output": [[-0.023, 0.056,-0.067, 0.034,-0.034, 0.067,-0.023, 0.012],[ 0.012,-0.023, 0.023,-0.045, 0.023,-0.034, 0.034,-0.012],[-0.034, 0.034,-0.023, 0.045,-0.034, 0.023,-0.012, 0.034],[ 0.023,-0.034, 0.045,-0.012, 0.012,-0.034, 0.034,-0.023],[-0.034, 0.034,-0.023, 0.056,-0.034, 0.012,-0.034, 0.045],[ 0.034,-0.023, 0.012,-0.034, 0.045,-0.034, 0.012,-0.023],[ 0.045,-0.012, 0.023,-0.034, 0.056,-0.023, 0.023,-0.056],[ 0.034,-0.023, 0.034,-0.023, 0.034,-0.023, 0.034,-0.034]
            ]
          },
          {
            "queries": [[ 0.212,-0.134, 0.234,-0.178, 0.134,-0.234, 0.212,-0.134],[-0.134, 0.212,-0.178, 0.234,-0.134, 0.178,-0.212, 0.134],[ 0.178,-0.234, 0.134,-0.212, 0.234,-0.134, 0.178,-0.234],[-0.234, 0.134,-0.234, 0.134,-0.212, 0.234,-0.134, 0.212],[ 0.134,-0.212, 0.212,-0.134, 0.178,-0.212, 0.234,-0.134],[-0.212, 0.178,-0.134, 0.212,-0.234, 0.134,-0.178, 0.234],[ 0.234,-0.178, 0.134,-0.234, 0.212,-0.134, 0.134,-0.212],[-0.178, 0.234,-0.212, 0.134,-0.178, 0.212,-0.234, 0.134]],
            "keys": [[ 0.178,-0.212, 0.134,-0.234, 0.212,-0.134, 0.178,-0.234],[-0.234, 0.134,-0.212, 0.178,-0.234, 0.212,-0.134, 0.178],[ 0.134,-0.234, 0.234,-0.134, 0.134,-0.234, 0.212,-0.134],[-0.212, 0.178,-0.134, 0.234,-0.212, 0.134,-0.234, 0.212],[ 0.234,-0.134, 0.212,-0.212, 0.234,-0.212, 0.134,-0.212],[-0.134, 0.234,-0.234, 0.134,-0.134, 0.234,-0.212, 0.134],[ 0.212,-0.212, 0.134,-0.234, 0.212,-0.134, 0.234,-0.134],[-0.134, 0.134,-0.134, 0.212,-0.234, 0.134,-0.134, 0.234]],
            "values": [[ 0.234,-0.134, 0.178,-0.212, 0.134,-0.234, 0.212,-0.134],[-0.134, 0.234,-0.212, 0.134,-0.234, 0.134,-0.134, 0.234],[ 0.178,-0.212, 0.234,-0.134, 0.212,-0.178, 0.134,-0.212],[-0.212, 0.134,-0.134, 0.234,-0.134, 0.212,-0.234, 0.134],[ 0.134,-0.234, 0.212,-0.178, 0.234,-0.134, 0.178,-0.234],[-0.234, 0.134,-0.178, 0.212,-0.212, 0.234,-0.212, 0.134],[ 0.212,-0.178, 0.134,-0.234, 0.212,-0.212, 0.234,-0.178],[-0.178, 0.212,-0.234, 0.178,-0.134, 0.134,-0.134, 0.212]],
            "scores": [[ 0.212, 0.134,-0.134,-0.212, 0.134,-0.212, 0.134, 0.278],[-0.134, 0.212,-0.134, 0.134,-0.234, 0.134, 0.134, 0.234],[-0.212, 0.134, 0.212,-0.134, 0.134,-0.234, 0.134, 0.134],[ 0.134,-0.212, 0.134, 0.134,-0.134, 0.134,-0.134, 0.134],[ 0.134,-0.234, 0.134,-0.134, 0.134,-0.134, 0.412, 0.389],[-0.134, 0.134,-0.212, 0.134,-0.134, 0.134, 0.212, 0.234],[-0.134,-0.134,-0.134,-0.234, 0.389,-0.212, 0.134, 0.312],[ 0.134,-0.134,-0.234, 0.134, 0.312,-0.134, 0.278, 0.134]],
            "weights": [[ 0.151, 0.140, 0.107, 0.099, 0.140, 0.099, 0.140, 0.124],[ 0.095, 0.134, 0.095, 0.124, 0.086, 0.124, 0.124, 0.218],[ 0.092, 0.130, 0.141, 0.099, 0.130, 0.090, 0.130, 0.188],[ 0.124, 0.088, 0.124, 0.124, 0.095, 0.124, 0.095, 0.226],[ 0.081, 0.056, 0.081, 0.062, 0.081, 0.062, 0.286, 0.291],[ 0.087, 0.114, 0.081, 0.114, 0.087, 0.114, 0.124, 0.279],[ 0.069, 0.069, 0.069, 0.063, 0.117, 0.064, 0.091, 0.458],[ 0.098, 0.075, 0.068, 0.098, 0.117, 0.075, 0.113, 0.356]],
            "output": [[ 0.023,-0.012, 0.034,-0.034, 0.023,-0.034, 0.034,-0.012],[-0.034, 0.045,-0.045, 0.023,-0.045, 0.023,-0.023, 0.045],[-0.023, 0.034,-0.023, 0.012,-0.012, 0.012,-0.012, 0.023],[-0.012, 0.012,-0.012, 0.034,-0.023, 0.023,-0.034, 0.023],[ 0.034,-0.045, 0.034,-0.045, 0.056,-0.034, 0.045,-0.045],[-0.023, 0.034,-0.034, 0.034,-0.023, 0.034,-0.034, 0.034],[ 0.012,-0.034, 0.034,-0.034, 0.034,-0.023, 0.034,-0.034],[ 0.012,-0.023, 0.023,-0.012, 0.034,-0.012, 0.023,-0.012]
            ]
          },
          {
            "queries": [[ 0.134,-0.178, 0.212,-0.134, 0.178,-0.212, 0.134,-0.178],[-0.178, 0.134,-0.134, 0.212,-0.178, 0.134,-0.178, 0.134],[ 0.178,-0.134, 0.134,-0.178, 0.212,-0.134, 0.178,-0.212],[-0.134, 0.178,-0.212, 0.134,-0.134, 0.178,-0.134, 0.178],[ 0.134,-0.178, 0.178,-0.134, 0.134,-0.178, 0.212,-0.134],[-0.178, 0.134,-0.134, 0.178,-0.212, 0.134,-0.134, 0.212],[ 0.178,-0.134, 0.134,-0.212, 0.178,-0.134, 0.134,-0.178],[-0.134, 0.178,-0.178, 0.134,-0.134, 0.178,-0.178, 0.134]],
            "keys": [[ 0.134,-0.178, 0.178,-0.134, 0.134,-0.178, 0.134,-0.134],[-0.178, 0.134,-0.134, 0.178,-0.134, 0.134,-0.178, 0.178],[ 0.178,-0.134, 0.134,-0.178, 0.178,-0.134, 0.178,-0.178],[-0.134, 0.178,-0.178, 0.134,-0.178, 0.178,-0.134, 0.134],[ 0.134,-0.134, 0.178,-0.134, 0.134,-0.178, 0.134,-0.134],[-0.178, 0.134,-0.134, 0.178,-0.134, 0.134,-0.178, 0.178],[ 0.178,-0.134, 0.134,-0.178, 0.178,-0.134, 0.178,-0.178],[-0.134, 0.178,-0.178, 0.134,-0.178, 0.178,-0.134, 0.134]],
            "values": [[ 0.178,-0.134, 0.134,-0.178, 0.178,-0.134, 0.134,-0.178],[-0.134, 0.178,-0.178, 0.134,-0.134, 0.178,-0.134, 0.134],[ 0.134,-0.178, 0.178,-0.134, 0.134,-0.178, 0.178,-0.134],[-0.178, 0.134,-0.134, 0.178,-0.178, 0.134,-0.178, 0.178],[ 0.178,-0.134, 0.134,-0.178, 0.178,-0.134, 0.134,-0.178],[-0.134, 0.178,-0.178, 0.134,-0.134, 0.178,-0.134, 0.134],[ 0.134,-0.178, 0.178,-0.134, 0.134,-0.178, 0.178,-0.134],[-0.178, 0.134,-0.134, 0.178,-0.178, 0.134,-0.178, 0.178]],
            "scores": [[ 0.045, 0.034, 0.023, 0.012, 0.023, 0.012, 0.023, 0.012],[ 0.034, 0.045, 0.034, 0.023, 0.012, 0.023, 0.012, 0.023],[ 0.023, 0.034, 0.045, 0.034, 0.023, 0.012, 0.023, 0.012],[ 0.012, 0.023, 0.034, 0.045, 0.034, 0.023, 0.012, 0.023],[ 0.023, 0.012, 0.023, 0.034, 0.045, 0.034, 0.023, 0.012],[ 0.012, 0.023, 0.012, 0.023, 0.034, 0.045, 0.034, 0.023],[ 0.023, 0.012, 0.023, 0.012, 0.023, 0.034, 0.045, 0.034],[ 0.012, 0.023, 0.012, 0.023, 0.012, 0.023, 0.034, 0.045]],
            "weights": [[ 0.136, 0.134, 0.133, 0.131, 0.103, 0.101, 0.133, 0.129],[ 0.134, 0.136, 0.134, 0.133, 0.101, 0.103, 0.126, 0.133],[ 0.133, 0.134, 0.136, 0.134, 0.103, 0.101, 0.126, 0.133],[ 0.101, 0.103, 0.134, 0.136, 0.134, 0.103, 0.126, 0.163],[ 0.133, 0.101, 0.103, 0.134, 0.136, 0.134, 0.126, 0.133],[ 0.101, 0.103, 0.101, 0.103, 0.134, 0.136, 0.134, 0.188],[ 0.103, 0.101, 0.103, 0.101, 0.103, 0.134, 0.136, 0.219],[ 0.101, 0.103, 0.101, 0.103, 0.101, 0.103, 0.134, 0.254]],
            "output": [[ 0.005,-0.003, 0.005,-0.005, 0.008,-0.003, 0.005,-0.005],[-0.003, 0.005,-0.005, 0.005,-0.003, 0.005,-0.003, 0.003],[ 0.003,-0.005, 0.005,-0.003, 0.005,-0.005, 0.008,-0.003],[-0.005, 0.003,-0.003, 0.008,-0.005, 0.003,-0.005, 0.005],[ 0.005,-0.003, 0.003,-0.005, 0.008,-0.003, 0.003,-0.005],[-0.005, 0.005,-0.005, 0.005,-0.003, 0.005,-0.005, 0.005],[ 0.003,-0.005, 0.008,-0.003, 0.003,-0.005, 0.008,-0.003],[-0.005, 0.003,-0.003, 0.005,-0.005, 0.003,-0.005, 0.008]
            ]
          }
        ],
        "combinedOutput": [
          [ 0.067,-0.034, 0.023,-0.056, 0.034,-0.034, 0.067,-0.023,-0.023, 0.056,-0.067, 0.034,-0.034, 0.067,-0.023, 0.012, 0.023,-0.012, 0.034,-0.034, 0.023,-0.034, 0.034,-0.012, 0.005,-0.003, 0.005,-0.005, 0.008,-0.003, 0.005,-0.005],
          [ 0.034,-0.012, 0.023,-0.034, 0.012,-0.034, 0.034,-0.012, 0.012,-0.023, 0.023,-0.045, 0.023,-0.034, 0.034,-0.012,-0.034, 0.045,-0.045, 0.023,-0.045, 0.023,-0.023, 0.045,-0.003, 0.005,-0.005, 0.005,-0.003, 0.005,-0.003, 0.003],
          [ 0.023,-0.023, 0.034,-0.023, 0.023,-0.045, 0.034,-0.023,-0.034, 0.034,-0.023, 0.045,-0.034, 0.023,-0.012, 0.034,-0.023, 0.034,-0.023, 0.012,-0.012, 0.012,-0.012, 0.023, 0.003,-0.005, 0.005,-0.003, 0.005,-0.005, 0.008,-0.003],
          [-0.023, 0.012,-0.012, 0.023,-0.023, 0.012,-0.012, 0.023, 0.023,-0.034, 0.045,-0.012, 0.012,-0.034, 0.034,-0.023,-0.012, 0.012,-0.012, 0.034,-0.023, 0.023,-0.034, 0.023,-0.005, 0.003,-0.003, 0.008,-0.005, 0.003,-0.005, 0.005],
          [-0.012,-0.012, 0.023,-0.012, 0.034,-0.012, 0.023,-0.034,-0.034, 0.034,-0.023, 0.056,-0.034, 0.012,-0.034, 0.045, 0.034,-0.045, 0.034,-0.045, 0.056,-0.034, 0.045,-0.045, 0.005,-0.003, 0.003,-0.005, 0.008,-0.003, 0.003,-0.005],
          [-0.023, 0.012,-0.034, 0.023,-0.012, 0.034,-0.023, 0.012, 0.034,-0.023, 0.012,-0.034, 0.045,-0.034, 0.012,-0.023,-0.023, 0.034,-0.034, 0.034,-0.023, 0.034,-0.034, 0.034,-0.005, 0.005,-0.005, 0.005,-0.003, 0.005,-0.005, 0.005],
          [ 0.012,-0.023, 0.012,-0.034, 0.034,-0.023, 0.045,-0.034, 0.045,-0.012, 0.023,-0.034, 0.056,-0.023, 0.023,-0.056, 0.012,-0.034, 0.034,-0.034, 0.034,-0.023, 0.034,-0.034, 0.003,-0.005, 0.008,-0.003, 0.003,-0.005, 0.008,-0.003],
          [-0.012, 0.023,-0.023, 0.012,-0.023, 0.023,-0.012, 0.023, 0.034,-0.023, 0.034,-0.023, 0.034,-0.023, 0.034,-0.034, 0.012,-0.023, 0.023,-0.012, 0.034,-0.012, 0.023,-0.012,-0.005, 0.003,-0.003, 0.005,-0.005, 0.003,-0.005, 0.008]
        ]
      },
      "ffnOutput": [
        [ 0.089,-0.012, 0.045,-0.034, 0.056,-0.012, 0.089, 0.001,-0.001, 0.078,-0.045, 0.056,-0.012, 0.089, 0.001, 0.034, 0.045, 0.010, 0.056,-0.012, 0.045,-0.012, 0.056, 0.010, 0.027, 0.019, 0.027, 0.017, 0.030, 0.019, 0.027, 0.017],
        [ 0.056, 0.010, 0.045,-0.012, 0.034,-0.012, 0.056, 0.010, 0.034,-0.001, 0.045,-0.023, 0.045,-0.012, 0.056, 0.010,-0.012, 0.067,-0.023, 0.045,-0.023, 0.045,-0.001, 0.067, 0.019, 0.027, 0.017, 0.027, 0.019, 0.027, 0.019, 0.025],
        [ 0.045,-0.001, 0.056,-0.001, 0.045,-0.023, 0.056,-0.001,-0.012, 0.056,-0.001, 0.067,-0.012, 0.045, 0.010, 0.056,-0.001, 0.056,-0.001, 0.034, 0.010, 0.034, 0.010, 0.045, 0.025, 0.017, 0.027, 0.019, 0.027, 0.017, 0.030, 0.019],
        [-0.001, 0.034, 0.010, 0.045,-0.001, 0.034, 0.010, 0.045, 0.045,-0.012, 0.067, 0.010, 0.034,-0.012, 0.056,-0.001, 0.010, 0.034, 0.010, 0.056,-0.001, 0.045,-0.012, 0.045, 0.017, 0.025, 0.019, 0.030, 0.017, 0.025, 0.017, 0.027],
        [ 0.010,-0.019, 0.045, 0.010, 0.056, 0.010, 0.045,-0.012,-0.012, 0.056,-0.001, 0.078,-0.012, 0.034,-0.012, 0.067, 0.056,-0.023, 0.056,-0.023, 0.078,-0.012, 0.067,-0.023, 0.027, 0.019, 0.025, 0.017, 0.030, 0.019, 0.025, 0.017],
        [-0.001, 0.034,-0.012, 0.045, 0.010, 0.056,-0.001, 0.034, 0.056,-0.001, 0.034,-0.012, 0.067,-0.012, 0.034,-0.001,-0.001, 0.056,-0.012, 0.056,-0.001, 0.056,-0.012, 0.056, 0.017, 0.027, 0.017, 0.027, 0.019, 0.027, 0.017, 0.027],
        [ 0.034,-0.001, 0.034,-0.012, 0.056, 0.001, 0.067,-0.012, 0.067, 0.010, 0.045,-0.012, 0.078,-0.001, 0.045,-0.034, 0.034,-0.012, 0.056,-0.012, 0.056,-0.001, 0.056,-0.012, 0.025, 0.017, 0.030, 0.019, 0.025, 0.017, 0.030, 0.019],
        [ 0.010, 0.045,-0.001, 0.034,-0.001, 0.045, 0.010, 0.045, 0.056,-0.001, 0.056,-0.001, 0.056,-0.001, 0.056,-0.012, 0.034,-0.001, 0.045, 0.010, 0.056, 0.010, 0.045, 0.010, 0.017, 0.025, 0.019, 0.027, 0.017, 0.025, 0.017, 0.030]
      ],
      "layerOutput": [
        [ 0.080,-0.011, 0.041,-0.031, 0.050,-0.011, 0.080, 0.001,-0.001, 0.070,-0.041, 0.050,-0.011, 0.080, 0.001, 0.031, 0.041, 0.009, 0.050,-0.011, 0.041,-0.011, 0.050, 0.009, 0.024, 0.017, 0.024, 0.015, 0.027, 0.017, 0.024, 0.015],
        [ 0.050, 0.009, 0.041,-0.011, 0.031,-0.011, 0.050, 0.009, 0.031,-0.001, 0.041,-0.021, 0.041,-0.011, 0.050, 0.009,-0.011, 0.060,-0.021, 0.041,-0.021, 0.041,-0.001, 0.060, 0.017, 0.024, 0.015, 0.024, 0.017, 0.024, 0.017, 0.023],
        [ 0.041,-0.001, 0.050,-0.001, 0.041,-0.021, 0.050,-0.001,-0.011, 0.050,-0.001, 0.060,-0.011, 0.041, 0.009, 0.050,-0.001, 0.050,-0.001, 0.031, 0.009, 0.031, 0.009, 0.041, 0.023, 0.015, 0.024, 0.017, 0.024, 0.015, 0.027, 0.017],
        [-0.001, 0.031, 0.009, 0.041,-0.001, 0.031, 0.009, 0.041, 0.041,-0.011, 0.060, 0.009, 0.031,-0.011, 0.050,-0.001, 0.009, 0.031, 0.009, 0.050,-0.001, 0.041,-0.011, 0.041, 0.015, 0.023, 0.017, 0.027, 0.015, 0.023, 0.015, 0.024],
        [ 0.009,-0.017, 0.041, 0.009, 0.050, 0.009, 0.041,-0.011,-0.011, 0.050,-0.001, 0.070,-0.011, 0.031,-0.011, 0.060, 0.050,-0.021, 0.050,-0.021, 0.070,-0.011, 0.060,-0.021, 0.024, 0.017, 0.023, 0.015, 0.027, 0.017, 0.023, 0.015],
        [-0.001, 0.031,-0.011, 0.041, 0.009, 0.050,-0.001, 0.031, 0.050,-0.001, 0.031,-0.011, 0.060,-0.011, 0.031,-0.001,-0.001, 0.050,-0.011, 0.050,-0.001, 0.050,-0.011, 0.050, 0.015, 0.024, 0.015, 0.024, 0.017, 0.024, 0.015, 0.024],
        [ 0.031,-0.001, 0.031,-0.011, 0.050, 0.001, 0.060,-0.011, 0.060, 0.009, 0.041,-0.011, 0.070,-0.001, 0.041,-0.031, 0.031,-0.011, 0.050,-0.011, 0.050,-0.001, 0.050,-0.011, 0.023, 0.015, 0.027, 0.017, 0.023, 0.015, 0.027, 0.017],
        [ 0.009, 0.041,-0.001, 0.031,-0.001, 0.041, 0.009, 0.041, 0.050,-0.001, 0.050,-0.001, 0.050,-0.001, 0.050,-0.011, 0.031,-0.001, 0.041, 0.009, 0.050, 0.009, 0.041, 0.009, 0.015, 0.023, 0.017, 0.024, 0.015, 0.023, 0.015, 0.027]
      ]
    }
  ]
}
