{
  "sentence": "The cat sat on the mat",
  "tokens": ["The", "cat", "sat", "on", "the", "mat"],
  "tokenIds": [15, 20, 21, 22, 15, 23],
  "embeddings": [
    [ 0.234, -0.451,  0.128, -0.312,  0.567, -0.189,  0.045, -0.623,  0.391, -0.102,  0.478, -0.267,  0.156, -0.534,  0.089, -0.412,  0.301, -0.178,  0.445, -0.091,  0.267, -0.389,  0.134, -0.512,  0.078, -0.345,  0.223, -0.167,  0.489, -0.056,  0.312, -0.234],
    [-0.178,  0.345, -0.267,  0.512, -0.089,  0.423, -0.356,  0.167, -0.445,  0.234, -0.123,  0.389, -0.278,  0.156, -0.467,  0.078, -0.534,  0.301, -0.045,  0.412, -0.312,  0.189, -0.478,  0.067, -0.391,  0.256, -0.134,  0.445, -0.201,  0.367, -0.089,  0.523],
    [ 0.412, -0.089,  0.345, -0.178,  0.256, -0.467,  0.123, -0.534,  0.067, -0.312,  0.489, -0.045,  0.378, -0.201,  0.156, -0.389,  0.512, -0.267,  0.034, -0.445,  0.189, -0.356,  0.445, -0.123,  0.301, -0.478,  0.067, -0.234,  0.378, -0.156,  0.523, -0.089],
    [-0.345,  0.189, -0.512,  0.078, -0.234,  0.401, -0.167,  0.523, -0.089,  0.345, -0.278,  0.134, -0.456,  0.267, -0.034,  0.489, -0.178,  0.356, -0.412,  0.123, -0.267,  0.478, -0.089,  0.312, -0.445,  0.156, -0.367,  0.201, -0.523,  0.078, -0.189,  0.434],
    [ 0.156, -0.389,  0.234, -0.467,  0.089, -0.312,  0.445, -0.178,  0.367, -0.045,  0.512, -0.201,  0.078, -0.534,  0.312, -0.123,  0.456, -0.267,  0.189, -0.401,  0.034, -0.478,  0.267, -0.156,  0.389, -0.089,  0.523, -0.312,  0.145, -0.434,  0.201, -0.367],
    [-0.267,  0.478, -0.156,  0.312, -0.445,  0.089, -0.523,  0.234, -0.178,  0.401, -0.067,  0.345, -0.389,  0.123, -0.256,  0.467, -0.134,  0.389, -0.312,  0.178, -0.445,  0.056, -0.367,  0.234, -0.512,  0.145, -0.278,  0.423, -0.089,  0.312, -0.456,  0.167]
  ],
  "positionalEncodings": [
    [ 0.000,  1.000,  0.000,  1.000,  0.000,  1.000,  0.000,  1.000,  0.000,  1.000,  0.000,  1.000,  0.000,  1.000,  0.000,  1.000,  0.000,  1.000,  0.000,  1.000,  0.000,  1.000,  0.000,  1.000,  0.000,  1.000,  0.000,  1.000,  0.000,  1.000,  0.000,  1.000],
    [ 0.841,  0.540,  0.603,  0.798,  0.364,  0.931,  0.199,  0.980,  0.109,  0.994,  0.059,  0.998,  0.032,  1.000,  0.017,  1.000,  0.010,  1.000,  0.005,  1.000,  0.003,  1.000,  0.002,  1.000,  0.001,  1.000,  0.001,  1.000,  0.000,  1.000,  0.000,  1.000],
    [ 0.909, -0.416,  0.930,  0.368,  0.681,  0.732,  0.389,  0.921,  0.216,  0.976,  0.118,  0.993,  0.064,  0.998,  0.035,  0.999,  0.019,  1.000,  0.010,  1.000,  0.006,  1.000,  0.003,  1.000,  0.002,  1.000,  0.001,  1.000,  0.001,  1.000,  0.000,  1.000],
    [ 0.141, -0.990,  0.974,  -0.227,  0.908,  0.419,  0.565,  0.825,  0.322,  0.947,  0.177,  0.984,  0.096,  0.995,  0.052,  0.999,  0.028,  1.000,  0.015,  1.000,  0.008,  1.000,  0.005,  1.000,  0.003,  1.000,  0.001,  1.000,  0.001,  1.000,  0.000,  1.000],
    [-0.757, -0.654,  0.735, -0.678,  0.998,  0.056,  0.717,  0.697,  0.423,  0.906,  0.234,  0.972,  0.128,  0.992,  0.070,  0.998,  0.038,  0.999,  0.021,  1.000,  0.011,  1.000,  0.006,  1.000,  0.003,  1.000,  0.002,  1.000,  0.001,  1.000,  0.001,  1.000],
    [-0.959, -0.284,  0.268, -0.963,  0.920, -0.391,  0.839,  0.544,  0.520,  0.854,  0.291,  0.957,  0.160,  0.987,  0.087,  0.996,  0.047,  0.999,  0.026,  1.000,  0.014,  1.000,  0.008,  1.000,  0.004,  1.000,  0.002,  1.000,  0.001,  1.000,  0.001,  1.000]
  ],
  "layers": [
    {
      "selfAttention": {
        "heads": [
          {
            "queries": [
              [ 0.312, -0.145,  0.267, -0.089,  0.178, -0.334,  0.056, -0.412],
              [-0.234,  0.178, -0.312,  0.145, -0.067,  0.289, -0.178,  0.334],
              [ 0.145, -0.267,  0.089, -0.334,  0.234, -0.178,  0.312, -0.056],
              [-0.089,  0.334, -0.178,  0.267, -0.312,  0.145, -0.234,  0.089],
              [ 0.267, -0.089,  0.334, -0.234,  0.145, -0.312,  0.089, -0.178],
              [-0.178,  0.234, -0.089,  0.312, -0.267,  0.178, -0.145,  0.267]
            ],
            "keys": [
              [ 0.189, -0.312,  0.234, -0.145,  0.089, -0.267,  0.178, -0.356],
              [-0.145,  0.267, -0.178,  0.312, -0.234,  0.089, -0.312,  0.178],
              [ 0.267, -0.089,  0.145, -0.267,  0.334, -0.178,  0.089, -0.234],
              [-0.312,  0.178, -0.267,  0.089, -0.145,  0.312, -0.234,  0.145],
              [ 0.089, -0.234,  0.312, -0.178,  0.267, -0.089,  0.145, -0.312],
              [-0.267,  0.145, -0.089,  0.234, -0.312,  0.178, -0.089,  0.267]
            ],
            "values": [
              [ 0.234, -0.167,  0.312, -0.089,  0.145, -0.278,  0.067, -0.345],
              [-0.189,  0.312, -0.234,  0.178, -0.067,  0.145, -0.289,  0.234],
              [ 0.145, -0.278,  0.089, -0.312,  0.234, -0.145,  0.178, -0.089],
              [-0.312,  0.145, -0.178,  0.267, -0.234,  0.312, -0.145,  0.178],
              [ 0.089, -0.234,  0.267, -0.145,  0.312, -0.089,  0.234, -0.267],
              [-0.178,  0.267, -0.145,  0.312, -0.089,  0.234, -0.178,  0.312]
            ],
            "scores": [
              [ 0.543,  0.312, -0.089, -0.234, -0.178, -0.312],
              [ 0.267,  0.489,  0.234, -0.145, -0.267, -0.312],
              [-0.089,  0.234,  0.512,  0.289, -0.145, -0.234],
              [-0.234, -0.089,  0.267,  0.478,  0.234,  0.145],
              [-0.312, -0.234, -0.145,  0.234,  0.534,  0.356],
              [-0.356, -0.312, -0.234,  0.089,  0.356,  0.489]
            ],
            "weights": [
              [ 0.293,  0.233,  0.156,  0.135,  0.143,  0.040],
              [ 0.196,  0.245,  0.190,  0.130,  0.115,  0.124],
              [ 0.113,  0.156,  0.259,  0.207,  0.134,  0.131],
              [ 0.099,  0.115,  0.164,  0.202,  0.218,  0.202],
              [ 0.079,  0.085,  0.093,  0.136,  0.344,  0.263],
              [ 0.068,  0.071,  0.077,  0.106,  0.328,  0.350]
            ],
            "output": [
              [ 0.045, -0.023,  0.112, -0.034,  0.089, -0.067,  0.023, -0.123],
              [-0.012,  0.089, -0.045,  0.067, -0.023,  0.045, -0.078,  0.056],
              [ 0.034, -0.067,  0.023, -0.089,  0.112, -0.045,  0.056, -0.034],
              [-0.045,  0.034, -0.023,  0.112, -0.067,  0.089, -0.034,  0.078],
              [ 0.023, -0.089,  0.067, -0.023,  0.145, -0.012,  0.089, -0.078],
              [-0.034,  0.112, -0.034,  0.089, -0.023,  0.078, -0.045,  0.112]
            ]
          },
          {
            "queries": [
              [ 0.178, -0.289,  0.134, -0.212,  0.356, -0.067,  0.234, -0.145],
              [-0.312,  0.089, -0.267,  0.178, -0.145,  0.312, -0.089,  0.234],
              [ 0.089, -0.178,  0.312, -0.089,  0.234, -0.312,  0.145, -0.267],
              [-0.234,  0.312, -0.145,  0.267, -0.089,  0.178, -0.312,  0.089],
              [ 0.145, -0.312,  0.089, -0.234,  0.312, -0.145,  0.267, -0.089],
              [-0.089,  0.267, -0.312,  0.145, -0.234,  0.267, -0.178,  0.312]
            ],
            "keys": [
              [ 0.267, -0.178,  0.089, -0.312,  0.145, -0.234,  0.312, -0.089],
              [-0.145,  0.312, -0.234,  0.089, -0.267,  0.178, -0.089,  0.267],
              [ 0.312, -0.089,  0.267, -0.178,  0.089, -0.312,  0.234, -0.178],
              [-0.089,  0.234, -0.178,  0.312, -0.145,  0.089, -0.267,  0.145],
              [ 0.234, -0.267,  0.145, -0.089,  0.312, -0.178,  0.089, -0.234],
              [-0.178,  0.145, -0.089,  0.267, -0.234,  0.312, -0.145,  0.178]
            ],
            "values": [
              [ 0.189, -0.312,  0.145, -0.089,  0.267, -0.178,  0.089, -0.234],
              [-0.267,  0.178, -0.312,  0.234, -0.089,  0.145, -0.312,  0.089],
              [ 0.178, -0.089,  0.267, -0.312,  0.145, -0.267,  0.089, -0.178],
              [-0.089,  0.267, -0.145,  0.178, -0.312,  0.089, -0.234,  0.267],
              [ 0.312, -0.178,  0.089, -0.267,  0.234, -0.089,  0.178, -0.312],
              [-0.234,  0.089, -0.267,  0.312, -0.145,  0.234, -0.089,  0.178]
            ],
            "scores": [
              [-0.089,  0.578, -0.145, -0.267, -0.089, -0.234],
              [ 0.234, -0.089,  0.567, -0.145, -0.267, -0.178],
              [-0.145,  0.489, -0.089,  0.178, -0.234, -0.145],
              [-0.267, -0.145,  0.423, -0.089,  0.089,  0.234],
              [-0.234, -0.267, -0.145, -0.089, -0.089,  0.578],
              [-0.145, -0.089, -0.234,  0.356,  0.467, -0.089]
            ],
            "weights": [
              [ 0.129,  0.380,  0.122,  0.108,  0.129,  0.132],
              [ 0.181,  0.131,  0.377,  0.124,  0.110,  0.077],
              [ 0.119,  0.282,  0.126,  0.164,  0.152,  0.157],
              [ 0.092,  0.104,  0.183,  0.110,  0.198,  0.313],
              [ 0.080,  0.077,  0.087,  0.092,  0.092,  0.572],
              [ 0.100,  0.106,  0.091,  0.195,  0.398,  0.110]
            ],
            "output": [
              [-0.034,  0.089, -0.112,  0.078, -0.023,  0.045, -0.089,  0.023],
              [ 0.067, -0.034,  0.089, -0.112,  0.045, -0.089,  0.023, -0.067],
              [-0.089,  0.112, -0.067,  0.045, -0.078,  0.034, -0.112,  0.089],
              [ 0.023, -0.067,  0.034, -0.023,  0.089, -0.023,  0.045, -0.034],
              [ 0.112, -0.089,  0.045, -0.078,  0.067, -0.045,  0.034, -0.089],
              [-0.056,  0.045, -0.034,  0.089, -0.045,  0.067, -0.078,  0.045]
            ]
          },
          {
            "queries": [
              [ 0.267, -0.134,  0.189, -0.312,  0.089, -0.234,  0.156, -0.078],
              [-0.089,  0.267, -0.178,  0.134, -0.312,  0.089, -0.234,  0.312],
              [ 0.178, -0.312,  0.089, -0.234,  0.267, -0.089,  0.312, -0.145],
              [-0.234,  0.089, -0.312,  0.267, -0.178,  0.312, -0.089,  0.178],
              [ 0.312, -0.178,  0.267, -0.089,  0.134, -0.312,  0.089, -0.234],
              [-0.145,  0.312, -0.089,  0.178, -0.267,  0.134, -0.312,  0.089]
            ],
            "keys": [
              [ 0.134, -0.267,  0.312, -0.089,  0.178, -0.312,  0.089, -0.178],
              [-0.312,  0.178, -0.089,  0.267, -0.234,  0.089, -0.178,  0.312],
              [ 0.089, -0.134,  0.267, -0.312,  0.089, -0.178,  0.267, -0.089],
              [-0.178,  0.312, -0.234,  0.089, -0.312,  0.267, -0.089,  0.178],
              [ 0.267, -0.089,  0.178, -0.267,  0.312, -0.089,  0.134, -0.312],
              [-0.089,  0.267, -0.312,  0.178, -0.089,  0.178, -0.267,  0.089]
            ],
            "values": [
              [ 0.178, -0.089,  0.267, -0.312,  0.134, -0.178,  0.089, -0.267],
              [-0.267,  0.312, -0.089,  0.178, -0.312,  0.089, -0.178,  0.134],
              [ 0.089, -0.178,  0.312, -0.089,  0.267, -0.312,  0.178, -0.089],
              [-0.178,  0.089, -0.267,  0.312, -0.089,  0.267, -0.312,  0.178],
              [ 0.312, -0.267,  0.089, -0.178,  0.178, -0.089,  0.267, -0.312],
              [-0.089,  0.178, -0.312,  0.267, -0.178,  0.312, -0.089,  0.089]
            ],
            "scores": [
              [ 0.234, -0.089, -0.145, -0.178,  0.423,  0.089],
              [-0.145,  0.267,  0.089,  0.045, -0.145,  0.423],
              [-0.089,  0.356,  0.234,  0.278, -0.089,  0.067],
              [-0.234, -0.145,  0.356,  0.234, -0.089,  0.423],
              [ 0.423,  0.067, -0.089, -0.145,  0.234,  0.089],
              [-0.145,  0.356,  0.067,  0.234,  0.089,  0.234]
            ],
            "weights": [
              [ 0.193,  0.140,  0.132,  0.128,  0.273,  0.134],
              [ 0.109,  0.164,  0.137,  0.132,  0.109,  0.349],
              [ 0.110,  0.220,  0.191,  0.177,  0.110,  0.192],
              [ 0.079,  0.087,  0.199,  0.176,  0.127,  0.332],
              [ 0.303,  0.130,  0.115,  0.108,  0.221,  0.123],
              [ 0.107,  0.223,  0.133,  0.156,  0.136,  0.245]
            ],
            "output": [
              [ 0.056, -0.034,  0.078, -0.089,  0.045, -0.023,  0.034, -0.078],
              [-0.078,  0.089, -0.067,  0.112, -0.045,  0.089, -0.056,  0.034],
              [-0.034,  0.067, -0.012,  0.045, -0.023,  0.034, -0.012,  0.023],
              [-0.045,  0.056, -0.089,  0.134, -0.056,  0.112, -0.078,  0.067],
              [ 0.089, -0.078,  0.056, -0.067,  0.078, -0.045,  0.067, -0.089],
              [-0.023,  0.078, -0.045,  0.089, -0.034,  0.067, -0.045,  0.034]
            ]
          },
          {
            "queries": [
              [ 0.134, -0.089,  0.267, -0.178,  0.089, -0.145,  0.234, -0.312],
              [-0.178,  0.312, -0.089,  0.234, -0.267,  0.089, -0.145,  0.178],
              [ 0.089, -0.234,  0.178, -0.089,  0.312, -0.267,  0.089, -0.178],
              [-0.267,  0.089, -0.312,  0.178, -0.089,  0.234, -0.312,  0.089],
              [ 0.178, -0.312,  0.089, -0.267,  0.234, -0.089,  0.178, -0.312],
              [-0.089,  0.178, -0.267,  0.089, -0.312,  0.178, -0.089,  0.234]
            ],
            "keys": [
              [ 0.089, -0.178,  0.312, -0.234,  0.089, -0.312,  0.178, -0.089],
              [-0.234,  0.089, -0.178,  0.312, -0.089,  0.178, -0.267,  0.134],
              [ 0.178, -0.312,  0.089, -0.178,  0.267, -0.089,  0.134, -0.267],
              [-0.089,  0.267, -0.234,  0.089, -0.312,  0.267, -0.089,  0.312],
              [ 0.267, -0.089,  0.178, -0.312,  0.089, -0.178,  0.312, -0.089],
              [-0.178,  0.134, -0.089,  0.267, -0.178,  0.089, -0.234,  0.178]
            ],
            "values": [
              [ 0.156, -0.234,  0.089, -0.178,  0.312, -0.089,  0.178, -0.267],
              [-0.089,  0.178, -0.312,  0.134, -0.089,  0.267, -0.178,  0.089],
              [ 0.267, -0.089,  0.178, -0.267,  0.089, -0.178,  0.312, -0.089],
              [-0.178,  0.312, -0.089,  0.178, -0.267,  0.089, -0.089,  0.312],
              [ 0.089, -0.178,  0.267, -0.089,  0.178, -0.312,  0.089, -0.178],
              [-0.267,  0.089, -0.178,  0.312, -0.089,  0.178, -0.267,  0.178]
            ],
            "scores": [
              [ 0.089,  0.067,  0.045,  0.023,  0.045,  0.045],
              [ 0.045,  0.089,  0.067,  0.045,  0.023,  0.045],
              [ 0.045,  0.045,  0.089,  0.067,  0.045,  0.023],
              [ 0.023,  0.045,  0.045,  0.089,  0.067,  0.045],
              [ 0.045,  0.023,  0.045,  0.045,  0.089,  0.067],
              [ 0.045,  0.045,  0.023,  0.045,  0.067,  0.089]
            ],
            "weights": [
              [ 0.176,  0.172,  0.169,  0.165,  0.169,  0.149],
              [ 0.169,  0.176,  0.172,  0.169,  0.145,  0.169],
              [ 0.169,  0.169,  0.176,  0.172,  0.169,  0.145],
              [ 0.145,  0.169,  0.169,  0.176,  0.172,  0.169],
              [ 0.169,  0.145,  0.169,  0.169,  0.176,  0.172],
              [ 0.169,  0.169,  0.145,  0.169,  0.172,  0.176]
            ],
            "output": [
              [ 0.001,  0.023, -0.001,  0.027, -0.003,  0.012,  0.005,  0.009],
              [ 0.012, -0.005,  0.009, -0.012,  0.034, -0.008,  0.023, -0.012],
              [ 0.023,  0.005, -0.012,  0.023, -0.008,  0.015, -0.009,  0.023],
              [-0.012,  0.034, -0.009,  0.034, -0.012,  0.023, -0.015,  0.034],
              [ 0.009, -0.012,  0.023, -0.009,  0.023, -0.023,  0.015, -0.015],
              [-0.015,  0.023, -0.015,  0.034, -0.009,  0.015, -0.023,  0.023]
            ]
          }
        ],
        "combinedOutput": [
          [ 0.045, -0.023,  0.112, -0.034,  0.089, -0.067,  0.023, -0.123, -0.034,  0.089, -0.112,  0.078, -0.023,  0.045, -0.089,  0.023,  0.056, -0.034,  0.078, -0.089,  0.045, -0.023,  0.034, -0.078,  0.001,  0.023, -0.001,  0.027, -0.003,  0.012,  0.005,  0.009],
          [-0.012,  0.089, -0.045,  0.067, -0.023,  0.045, -0.078,  0.056,  0.067, -0.034,  0.089, -0.112,  0.045, -0.089,  0.023, -0.067, -0.078,  0.089, -0.067,  0.112, -0.045,  0.089, -0.056,  0.034,  0.012, -0.005,  0.009, -0.012,  0.034, -0.008,  0.023, -0.012],
          [ 0.034, -0.067,  0.023, -0.089,  0.112, -0.045,  0.056, -0.034, -0.089,  0.112, -0.067,  0.045, -0.078,  0.034, -0.112,  0.089, -0.034,  0.067, -0.012,  0.045, -0.023,  0.034, -0.012,  0.023,  0.023,  0.005, -0.012,  0.023, -0.008,  0.015, -0.009,  0.023],
          [-0.045,  0.034, -0.023,  0.112, -0.067,  0.089, -0.034,  0.078,  0.023, -0.067,  0.034, -0.023,  0.089, -0.023,  0.045, -0.034, -0.045,  0.056, -0.089,  0.134, -0.056,  0.112, -0.078,  0.067, -0.012,  0.034, -0.009,  0.034, -0.012,  0.023, -0.015,  0.034],
          [ 0.023, -0.089,  0.067, -0.023,  0.145, -0.012,  0.089, -0.078,  0.112, -0.089,  0.045, -0.078,  0.067, -0.045,  0.034, -0.089,  0.089, -0.078,  0.056, -0.067,  0.078, -0.045,  0.067, -0.089,  0.009, -0.012,  0.023, -0.009,  0.023, -0.023,  0.015, -0.015],
          [-0.034,  0.112, -0.034,  0.089, -0.023,  0.078, -0.045,  0.112, -0.056,  0.045, -0.034,  0.089, -0.045,  0.067, -0.078,  0.045, -0.023,  0.078, -0.045,  0.089, -0.034,  0.067, -0.045,  0.034, -0.015,  0.023, -0.015,  0.034, -0.009,  0.015, -0.023,  0.023]
        ]
      },
      "ffnOutput": [
        [ 0.067, -0.012,  0.134, -0.023,  0.112, -0.045,  0.045, -0.101, -0.012,  0.112, -0.089,  0.101, -0.001,  0.067, -0.067,  0.045,  0.078, -0.012,  0.101, -0.067,  0.067, -0.001,  0.056, -0.056,  0.023,  0.045,  0.021,  0.049, -0.019,  0.034,  0.027,  0.031],
        [ 0.010,  0.112, -0.023,  0.089, -0.001,  0.067, -0.056,  0.078,  0.089, -0.012,  0.112, -0.089,  0.067, -0.067,  0.045, -0.045, -0.056,  0.112, -0.045,  0.134, -0.023,  0.112, -0.034,  0.056,  0.034,  0.017,  0.031,  0.010,  0.056, -0.014,  0.045, -0.018],
        [ 0.056, -0.045,  0.045, -0.067,  0.134, -0.023,  0.078, -0.012, -0.067,  0.134, -0.045,  0.067, -0.056,  0.056, -0.089,  0.112, -0.012,  0.089,  0.010,  0.067, -0.001,  0.056,  0.010,  0.045,  0.045,  0.027,  0.010,  0.045, -0.014,  0.037, -0.015,  0.045],
        [-0.023,  0.056, -0.001,  0.134, -0.045,  0.112, -0.012,  0.101,  0.045, -0.045,  0.056, -0.001,  0.112, -0.001,  0.067, -0.012, -0.023,  0.078, -0.067,  0.156, -0.034,  0.134, -0.056,  0.089,  0.010,  0.056,  0.013,  0.056, -0.018,  0.045, -0.021,  0.056],
        [ 0.045, -0.067,  0.089, -0.001,  0.167, -0.019,  0.112, -0.056,  0.134, -0.067,  0.067, -0.056,  0.089, -0.023,  0.056, -0.067,  0.112, -0.056,  0.078, -0.045,  0.101, -0.023,  0.089, -0.067,  0.031, -0.018,  0.045, -0.015,  0.045, -0.029,  0.037, -0.021],
        [-0.012,  0.134, -0.012,  0.112, -0.001,  0.101, -0.023,  0.134, -0.034,  0.067, -0.012,  0.112, -0.023,  0.089, -0.056,  0.067, -0.001,  0.101, -0.023,  0.112, -0.012,  0.089, -0.023,  0.056,  0.007,  0.045,  0.007,  0.056, -0.015,  0.037, -0.029,  0.045]
      ],
      "layerOutput": [
        [ 0.060, -0.011,  0.121, -0.021,  0.101, -0.041,  0.041, -0.091, -0.011,  0.101, -0.080,  0.091, -0.001,  0.060, -0.060,  0.041,  0.070, -0.011,  0.091, -0.060,  0.060, -0.001,  0.050, -0.050,  0.021,  0.041,  0.019,  0.044, -0.017,  0.031,  0.024,  0.028],
        [ 0.009,  0.101, -0.021,  0.080, -0.001,  0.060, -0.050,  0.070,  0.080, -0.011,  0.101, -0.080,  0.060, -0.060,  0.041, -0.041, -0.050,  0.101, -0.041,  0.121, -0.021,  0.101, -0.031,  0.050,  0.031,  0.015,  0.028,  0.009,  0.050, -0.013,  0.041, -0.016],
        [ 0.050, -0.041,  0.041, -0.060,  0.121, -0.021,  0.070, -0.011, -0.060,  0.121, -0.041,  0.060, -0.050,  0.050, -0.080,  0.101, -0.011,  0.080,  0.009,  0.060, -0.001,  0.050,  0.009,  0.041,  0.041,  0.024,  0.009,  0.041, -0.013,  0.033, -0.014,  0.041],
        [-0.021,  0.050, -0.001,  0.121, -0.041,  0.101, -0.011,  0.091,  0.041, -0.041,  0.050, -0.001,  0.101, -0.001,  0.060, -0.011, -0.021,  0.070, -0.060,  0.140, -0.031,  0.121, -0.050,  0.080,  0.009,  0.050,  0.012,  0.050, -0.016,  0.041, -0.019,  0.050],
        [ 0.041, -0.060,  0.080, -0.001,  0.150, -0.017,  0.101, -0.050,  0.121, -0.060,  0.060, -0.050,  0.080, -0.021,  0.050, -0.060,  0.101, -0.050,  0.070, -0.041,  0.091, -0.021,  0.080, -0.060,  0.028, -0.016,  0.041, -0.014,  0.041, -0.026,  0.033, -0.019],
        [-0.011,  0.121, -0.011,  0.101, -0.001,  0.091, -0.021,  0.121, -0.031,  0.060, -0.011,  0.101, -0.021,  0.080, -0.050,  0.060, -0.001,  0.091, -0.021,  0.101, -0.011,  0.080, -0.021,  0.050,  0.006,  0.041,  0.006,  0.050, -0.014,  0.033, -0.026,  0.041]
      ]
    },
    {
      "selfAttention": {
        "heads": [
          {
            "queries": [
              [ 0.289, -0.167,  0.234, -0.112,  0.189, -0.278,  0.078, -0.356],
              [-0.212,  0.189, -0.289,  0.167, -0.089,  0.267, -0.156,  0.312],
              [ 0.167, -0.234,  0.112, -0.289,  0.256, -0.167,  0.289, -0.078],
              [-0.112,  0.289, -0.167,  0.234, -0.289,  0.167, -0.212,  0.112],
              [ 0.234, -0.112,  0.289, -0.212,  0.167, -0.289,  0.112, -0.167],
              [-0.156,  0.212, -0.112,  0.289, -0.234,  0.156, -0.167,  0.234]
            ],
            "keys": [
              [ 0.212, -0.289,  0.256, -0.167,  0.112, -0.234,  0.189, -0.312],
              [-0.167,  0.234, -0.189,  0.289, -0.212,  0.112, -0.289,  0.189],
              [ 0.234, -0.112,  0.167, -0.234,  0.312, -0.167,  0.112, -0.212],
              [-0.289,  0.189, -0.234,  0.112, -0.167,  0.289, -0.212,  0.167],
              [ 0.112, -0.212,  0.289, -0.189,  0.234, -0.112,  0.167, -0.289],
              [-0.234,  0.167, -0.112,  0.212, -0.289,  0.189, -0.112,  0.234]
            ],
            "values": [
              [ 0.212, -0.189,  0.289, -0.112,  0.167, -0.256,  0.089, -0.312],
              [-0.167,  0.289, -0.212,  0.189, -0.089,  0.167, -0.267,  0.212],
              [ 0.167, -0.256,  0.112, -0.289,  0.212, -0.167,  0.189, -0.112],
              [-0.289,  0.167, -0.189,  0.245, -0.212,  0.289, -0.167,  0.189],
              [ 0.112, -0.212,  0.245, -0.167,  0.289, -0.112,  0.212, -0.245],
              [-0.189,  0.245, -0.167,  0.289, -0.112,  0.212, -0.189,  0.289]
            ],
            "scores": [
              [ 0.612,  0.378, -0.067, -0.289, -0.178, -0.378],
              [ 0.312,  0.556,  0.289, -0.167, -0.289, -0.378],
              [-0.067,  0.289,  0.589,  0.345, -0.167, -0.289],
              [-0.289, -0.067,  0.312,  0.545,  0.289,  0.178],
              [-0.378, -0.289, -0.167,  0.289,  0.612,  0.423],
              [-0.423, -0.378, -0.289,  0.112,  0.423,  0.567]
            ],
            "weights": [
              [ 0.320,  0.253,  0.162,  0.130,  0.093,  0.042],
              [ 0.197,  0.252,  0.193,  0.123,  0.120,  0.115],
              [ 0.108,  0.155,  0.263,  0.206,  0.138,  0.130],
              [ 0.088,  0.110,  0.161,  0.203,  0.225,  0.213],
              [ 0.072,  0.078,  0.089,  0.140,  0.353,  0.268],
              [ 0.061,  0.064,  0.070,  0.105,  0.330,  0.370]
            ],
            "output": [
              [ 0.056, -0.034,  0.123, -0.045,  0.098, -0.078,  0.034, -0.134],
              [-0.023,  0.098, -0.056,  0.078, -0.034,  0.056, -0.089,  0.067],
              [ 0.045, -0.078,  0.034, -0.098,  0.123, -0.056,  0.067, -0.045],
              [-0.056,  0.045, -0.034,  0.123, -0.078,  0.098, -0.045,  0.089],
              [ 0.034, -0.098,  0.078, -0.034,  0.156, -0.023,  0.098, -0.089],
              [-0.045,  0.123, -0.045,  0.098, -0.034,  0.089, -0.056,  0.123]
            ]
          },
          {
            "queries": [
              [ 0.189, -0.267,  0.156, -0.189,  0.334, -0.089,  0.212, -0.167],
              [-0.289,  0.112, -0.245,  0.189, -0.167,  0.289, -0.112,  0.212],
              [ 0.112, -0.189,  0.289, -0.112,  0.212, -0.289,  0.167, -0.245],
              [-0.212,  0.289, -0.167,  0.245, -0.112,  0.189, -0.289,  0.112],
              [ 0.167, -0.289,  0.112, -0.212,  0.289, -0.167,  0.245, -0.112],
              [-0.112,  0.245, -0.289,  0.167, -0.212,  0.245, -0.189,  0.289]
            ],
            "keys": [
              [ 0.245, -0.189,  0.112, -0.289,  0.167, -0.212,  0.289, -0.112],
              [-0.167,  0.289, -0.212,  0.112, -0.245,  0.189, -0.112,  0.245],
              [ 0.289, -0.112,  0.245, -0.189,  0.112, -0.289,  0.212, -0.189],
              [-0.112,  0.212, -0.189,  0.289, -0.167,  0.112, -0.245,  0.167],
              [ 0.212, -0.245,  0.167, -0.112,  0.289, -0.189,  0.112, -0.212],
              [-0.189,  0.167, -0.112,  0.245, -0.212,  0.289, -0.167,  0.189]
            ],
            "values": [
              [ 0.212, -0.289,  0.167, -0.112,  0.245, -0.189,  0.112, -0.212],
              [-0.245,  0.189, -0.289,  0.212, -0.112,  0.167, -0.289,  0.112],
              [ 0.189, -0.112,  0.245, -0.289,  0.167, -0.245,  0.112, -0.189],
              [-0.112,  0.245, -0.167,  0.189, -0.289,  0.112, -0.212,  0.245],
              [ 0.289, -0.189,  0.112, -0.245,  0.212, -0.112,  0.189, -0.289],
              [-0.212,  0.112, -0.245,  0.289, -0.167,  0.212, -0.112,  0.189]
            ],
            "scores": [
              [-0.112,  0.645, -0.167, -0.312, -0.112, -0.267],
              [ 0.267, -0.112,  0.634, -0.167, -0.312, -0.189],
              [-0.167,  0.534, -0.112,  0.212, -0.267, -0.167],
              [-0.312, -0.167,  0.478, -0.112,  0.112,  0.267],
              [-0.267, -0.312, -0.167, -0.112, -0.112,  0.645],
              [-0.167, -0.112, -0.267,  0.412,  0.523, -0.112]
            ],
            "weights": [
              [ 0.118,  0.419,  0.111,  0.096,  0.118,  0.138],
              [ 0.189,  0.129,  0.389,  0.123,  0.106,  0.064],
              [ 0.114,  0.298,  0.121,  0.167,  0.145,  0.155],
              [ 0.084,  0.098,  0.186,  0.103,  0.202,  0.327],
              [ 0.075,  0.072,  0.083,  0.088,  0.088,  0.594],
              [ 0.095,  0.100,  0.086,  0.198,  0.415,  0.106]
            ],
            "output": [
              [-0.045,  0.098, -0.123,  0.089, -0.034,  0.056, -0.098,  0.034],
              [ 0.078, -0.045,  0.098, -0.123,  0.056, -0.098,  0.034, -0.078],
              [-0.098,  0.123, -0.078,  0.056, -0.089,  0.045, -0.123,  0.098],
              [ 0.034, -0.078,  0.045, -0.034,  0.098, -0.034,  0.056, -0.045],
              [ 0.123, -0.098,  0.056, -0.089,  0.078, -0.056,  0.045, -0.098],
              [-0.067,  0.056, -0.045,  0.098, -0.056,  0.078, -0.089,  0.056]
            ]
          },
          {
            "queries": [
              [ 0.245, -0.156,  0.178, -0.289,  0.112, -0.212,  0.167, -0.089],
              [-0.112,  0.245, -0.189,  0.156, -0.289,  0.112, -0.212,  0.289],
              [ 0.189, -0.289,  0.112, -0.212,  0.245, -0.112,  0.289, -0.167],
              [-0.212,  0.112, -0.289,  0.245, -0.189,  0.289, -0.112,  0.189],
              [ 0.289, -0.189,  0.245, -0.112,  0.156, -0.289,  0.112, -0.212],
              [-0.167,  0.289, -0.112,  0.189, -0.245,  0.156, -0.289,  0.112]
            ],
            "keys": [
              [ 0.156, -0.245,  0.289, -0.112,  0.189, -0.289,  0.112, -0.189],
              [-0.289,  0.189, -0.112,  0.245, -0.212,  0.112, -0.189,  0.289],
              [ 0.112, -0.156,  0.245, -0.289,  0.112, -0.189,  0.245, -0.112],
              [-0.189,  0.289, -0.212,  0.112, -0.289,  0.245, -0.112,  0.189],
              [ 0.245, -0.112,  0.189, -0.245,  0.289, -0.112,  0.156, -0.289],
              [-0.112,  0.245, -0.289,  0.189, -0.112,  0.189, -0.245,  0.112]
            ],
            "values": [
              [ 0.189, -0.112,  0.245, -0.289,  0.156, -0.189,  0.112, -0.245],
              [-0.245,  0.289, -0.112,  0.189, -0.289,  0.112, -0.189,  0.156],
              [ 0.112, -0.189,  0.289, -0.112,  0.245, -0.289,  0.189, -0.112],
              [-0.189,  0.112, -0.245,  0.289, -0.112,  0.245, -0.289,  0.189],
              [ 0.289, -0.245,  0.112, -0.189,  0.189, -0.112,  0.245, -0.289],
              [-0.112,  0.189, -0.289,  0.245, -0.189,  0.289, -0.112,  0.112]
            ],
            "scores": [
              [ 0.212, -0.067, -0.156, -0.189,  0.389,  0.067],
              [-0.156,  0.245,  0.067,  0.034, -0.156,  0.389],
              [-0.067,  0.323,  0.212,  0.256, -0.067,  0.045],
              [-0.212, -0.156,  0.323,  0.212, -0.067,  0.389],
              [ 0.389,  0.045, -0.067, -0.156,  0.212,  0.067],
              [-0.156,  0.323,  0.045,  0.212,  0.067,  0.212]
            ],
            "weights": [
              [ 0.197,  0.149,  0.136,  0.132,  0.254,  0.132],
              [ 0.113,  0.169,  0.141,  0.137,  0.113,  0.327],
              [ 0.114,  0.212,  0.190,  0.198,  0.114,  0.172],
              [ 0.082,  0.087,  0.207,  0.186,  0.112,  0.326],
              [ 0.292,  0.130,  0.117,  0.107,  0.223,  0.131],
              [ 0.109,  0.216,  0.130,  0.153,  0.133,  0.259]
            ],
            "output": [
              [ 0.067, -0.045,  0.089, -0.098,  0.056, -0.034,  0.045, -0.089],
              [-0.089,  0.098, -0.078,  0.123, -0.056,  0.098, -0.067,  0.045],
              [-0.045,  0.078, -0.023,  0.056, -0.034,  0.045, -0.023,  0.034],
              [-0.056,  0.067, -0.098,  0.145, -0.067,  0.123, -0.089,  0.078],
              [ 0.098, -0.089,  0.067, -0.078,  0.089, -0.056,  0.078, -0.098],
              [-0.034,  0.089, -0.056,  0.098, -0.045,  0.078, -0.056,  0.045]
            ]
          },
          {
            "queries": [
              [ 0.156, -0.112,  0.245, -0.189,  0.112, -0.167,  0.212, -0.289],
              [-0.189,  0.289, -0.112,  0.212, -0.245,  0.112, -0.167,  0.189],
              [ 0.112, -0.212,  0.189, -0.112,  0.289, -0.245,  0.112, -0.189],
              [-0.245,  0.112, -0.289,  0.189, -0.112,  0.212, -0.289,  0.112],
              [ 0.189, -0.289,  0.112, -0.245,  0.212, -0.112,  0.189, -0.289],
              [-0.112,  0.189, -0.245,  0.112, -0.289,  0.189, -0.112,  0.212]
            ],
            "keys": [
              [ 0.112, -0.189,  0.289, -0.212,  0.112, -0.289,  0.189, -0.112],
              [-0.212,  0.112, -0.189,  0.289, -0.112,  0.189, -0.245,  0.156],
              [ 0.189, -0.289,  0.112, -0.189,  0.245, -0.112,  0.156, -0.245],
              [-0.112,  0.245, -0.212,  0.112, -0.289,  0.245, -0.112,  0.289],
              [ 0.245, -0.112,  0.189, -0.289,  0.112, -0.189,  0.289, -0.112],
              [-0.189,  0.156, -0.112,  0.245, -0.189,  0.112, -0.212,  0.189]
            ],
            "values": [
              [ 0.178, -0.212,  0.112, -0.189,  0.289, -0.112,  0.189, -0.245],
              [-0.112,  0.189, -0.289,  0.156, -0.112,  0.245, -0.189,  0.112],
              [ 0.245, -0.112,  0.189, -0.245,  0.112, -0.189,  0.289, -0.112],
              [-0.189,  0.289, -0.112,  0.189, -0.245,  0.112, -0.112,  0.289],
              [ 0.112, -0.189,  0.245, -0.112,  0.189, -0.289,  0.112, -0.189],
              [-0.245,  0.112, -0.189,  0.289, -0.112,  0.189, -0.245,  0.189]
            ],
            "scores": [
              [ 0.067,  0.056,  0.034,  0.012,  0.034,  0.034],
              [ 0.034,  0.067,  0.056,  0.034,  0.012,  0.034],
              [ 0.034,  0.034,  0.067,  0.056,  0.034,  0.012],
              [ 0.012,  0.034,  0.034,  0.067,  0.056,  0.034],
              [ 0.034,  0.012,  0.034,  0.034,  0.067,  0.056],
              [ 0.034,  0.034,  0.012,  0.034,  0.056,  0.067]
            ],
            "weights": [
              [ 0.175,  0.173,  0.169,  0.166,  0.149,  0.168],
              [ 0.169,  0.175,  0.173,  0.169,  0.146,  0.168],
              [ 0.169,  0.169,  0.175,  0.173,  0.169,  0.145],
              [ 0.145,  0.169,  0.169,  0.175,  0.173,  0.169],
              [ 0.169,  0.145,  0.169,  0.169,  0.175,  0.173],
              [ 0.169,  0.169,  0.145,  0.169,  0.173,  0.175]
            ],
            "output": [
              [-0.001,  0.031,  0.001,  0.019, -0.001,  0.008,  0.009,  0.001],
              [ 0.016, -0.009,  0.013, -0.016,  0.030, -0.012,  0.019, -0.016],
              [ 0.019,  0.009, -0.016,  0.019, -0.012,  0.019, -0.013,  0.019],
              [-0.016,  0.030, -0.013,  0.030, -0.016,  0.019, -0.019,  0.030],
              [ 0.013, -0.016,  0.019, -0.013,  0.019, -0.019,  0.019, -0.019],
              [-0.019,  0.019, -0.019,  0.030, -0.013,  0.019, -0.019,  0.019]
            ]
          }
        ],
        "combinedOutput": [
          [ 0.056, -0.034,  0.123, -0.045,  0.098, -0.078,  0.034, -0.134, -0.045,  0.098, -0.123,  0.089, -0.034,  0.056, -0.098,  0.034,  0.067, -0.045,  0.089, -0.098,  0.056, -0.034,  0.045, -0.089, -0.001,  0.031,  0.001,  0.019, -0.001,  0.008,  0.009,  0.001],
          [-0.023,  0.098, -0.056,  0.078, -0.034,  0.056, -0.089,  0.067,  0.078, -0.045,  0.098, -0.123,  0.056, -0.098,  0.034, -0.078, -0.089,  0.098, -0.078,  0.123, -0.056,  0.098, -0.067,  0.045,  0.016, -0.009,  0.013, -0.016,  0.030, -0.012,  0.019, -0.016],
          [ 0.045, -0.078,  0.034, -0.098,  0.123, -0.056,  0.067, -0.045, -0.098,  0.123, -0.078,  0.056, -0.089,  0.045, -0.123,  0.098, -0.045,  0.078, -0.023,  0.056, -0.034,  0.045, -0.023,  0.034,  0.019,  0.009, -0.016,  0.019, -0.012,  0.019, -0.013,  0.019],
          [-0.056,  0.045, -0.034,  0.123, -0.078,  0.098, -0.045,  0.089,  0.034, -0.078,  0.045, -0.034,  0.098, -0.034,  0.056, -0.045, -0.056,  0.067, -0.098,  0.145, -0.067,  0.123, -0.089,  0.078, -0.016,  0.030, -0.013,  0.030, -0.016,  0.019, -0.019,  0.030],
          [ 0.034, -0.098,  0.078, -0.034,  0.156, -0.023,  0.098, -0.089,  0.123, -0.098,  0.056, -0.089,  0.078, -0.056,  0.045, -0.098,  0.098, -0.089,  0.067, -0.078,  0.089, -0.056,  0.078, -0.098,  0.013, -0.016,  0.019, -0.013,  0.019, -0.019,  0.019, -0.019],
          [-0.045,  0.123, -0.045,  0.098, -0.034,  0.089, -0.056,  0.123, -0.067,  0.056, -0.045,  0.098, -0.056,  0.078, -0.089,  0.056, -0.034,  0.089, -0.056,  0.098, -0.045,  0.078, -0.056,  0.045, -0.019,  0.019, -0.019,  0.030, -0.013,  0.019, -0.019,  0.019]
        ]
      },
      "ffnOutput": [
        [ 0.078, -0.012,  0.145, -0.023,  0.120, -0.056,  0.056, -0.112, -0.023,  0.120, -0.101,  0.112, -0.012,  0.078, -0.076,  0.056,  0.089, -0.023,  0.112, -0.076,  0.078, -0.012,  0.067, -0.067,  0.021,  0.053,  0.023,  0.041, -0.023,  0.030,  0.031,  0.023],
        [ 0.001,  0.120, -0.034,  0.101, -0.012,  0.078, -0.067,  0.089,  0.101, -0.023,  0.120, -0.101,  0.078, -0.076,  0.056, -0.056, -0.067,  0.120, -0.056,  0.145, -0.034,  0.120, -0.045,  0.067,  0.038,  0.013,  0.035,  0.006,  0.052, -0.018,  0.041, -0.022],
        [ 0.067, -0.056,  0.056, -0.076,  0.145, -0.034,  0.089, -0.023, -0.076,  0.145, -0.056,  0.078, -0.067,  0.067, -0.101,  0.120, -0.023,  0.101,  0.001,  0.078, -0.012,  0.067,  0.001,  0.056,  0.041,  0.031,  0.006,  0.041, -0.018,  0.041, -0.019,  0.041],
        [-0.034,  0.067, -0.012,  0.145, -0.056,  0.120, -0.023,  0.112,  0.056, -0.056,  0.067, -0.012,  0.120, -0.012,  0.078, -0.023, -0.034,  0.089, -0.076,  0.167, -0.045,  0.145, -0.067,  0.101,  0.006,  0.052,  0.009,  0.052, -0.022,  0.041, -0.025,  0.052],
        [ 0.056, -0.076,  0.101, -0.012,  0.178,  0.001,  0.120, -0.067,  0.145, -0.076,  0.078, -0.067,  0.101, -0.034,  0.067, -0.076,  0.120, -0.067,  0.089, -0.056,  0.112, -0.034,  0.101, -0.076,  0.035, -0.022,  0.041, -0.019,  0.041, -0.025,  0.041, -0.025],
        [-0.023,  0.145, -0.023,  0.120, -0.012,  0.112, -0.034,  0.145, -0.045,  0.078, -0.023,  0.120, -0.034,  0.101, -0.067,  0.078, -0.012,  0.112, -0.034,  0.120, -0.023,  0.101, -0.034,  0.067,  0.003,  0.041,  0.003,  0.052, -0.019,  0.041, -0.025,  0.041]
      ],
      "layerOutput": [
        [ 0.070, -0.011,  0.131, -0.021,  0.108, -0.050,  0.050, -0.101, -0.021,  0.108, -0.091,  0.101, -0.011,  0.070, -0.068,  0.050,  0.080, -0.021,  0.101, -0.068,  0.070, -0.011,  0.060, -0.060,  0.019,  0.048,  0.021,  0.037, -0.021,  0.027,  0.028,  0.021],
        [ 0.001,  0.108, -0.031,  0.091, -0.011,  0.070, -0.060,  0.080,  0.091, -0.021,  0.108, -0.091,  0.070, -0.068,  0.050, -0.050, -0.060,  0.108, -0.050,  0.131, -0.031,  0.108, -0.041,  0.060,  0.034,  0.012,  0.032,  0.005,  0.047, -0.016,  0.037, -0.020],
        [ 0.060, -0.050,  0.050, -0.068,  0.131, -0.031,  0.080, -0.021, -0.068,  0.131, -0.050,  0.070, -0.060,  0.060, -0.091,  0.108, -0.021,  0.091,  0.001,  0.070, -0.011,  0.060,  0.001,  0.050,  0.037,  0.028,  0.005,  0.037, -0.016,  0.037, -0.017,  0.037],
        [-0.031,  0.060, -0.011,  0.131, -0.050,  0.108, -0.021,  0.101,  0.050, -0.050,  0.060, -0.011,  0.108, -0.011,  0.070, -0.021, -0.031,  0.080, -0.068,  0.150, -0.041,  0.131, -0.060,  0.091,  0.005,  0.047,  0.008,  0.047, -0.020,  0.037, -0.023,  0.047],
        [ 0.050, -0.068,  0.091, -0.011,  0.160,  0.001,  0.108, -0.060,  0.131, -0.068,  0.070, -0.060,  0.091, -0.031,  0.060, -0.068,  0.108, -0.060,  0.080, -0.050,  0.101, -0.031,  0.091, -0.068,  0.032, -0.020,  0.037, -0.017,  0.037, -0.023,  0.037, -0.023],
        [-0.021,  0.131, -0.021,  0.108, -0.011,  0.101, -0.031,  0.131, -0.041,  0.070, -0.021,  0.108, -0.031,  0.091, -0.060,  0.070, -0.011,  0.101, -0.031,  0.108, -0.021,  0.091, -0.031,  0.060,  0.003,  0.037,  0.003,  0.047, -0.017,  0.037, -0.023,  0.037]
      ]
    }
  ]
}
